{"learner":{"attributes":{"scikit_learn":"{\"_estimator_type\": \"regressor\"}"},"feature_names":[],"feature_types":[],"gradient_booster":{"model":{"cats":{"enc":[],"feature_segments":[],"sorted_idx":[]},"gbtree_model_param":{"num_parallel_tree":"1","num_trees":"300"},"iteration_indptr":[0,1,2,3,4,5,6,7,8,9,10,11,12,13,14,15,16,17,18,19,20,21,22,23,24,25,26,27,28,29,30,31,32,33,34,35,36,37,38,39,40,41,42,43,44,45,46,47,48,49,50,51,52,53,54,55,56,57,58,59,60,61,62,63,64,65,66,67,68,69,70,71,72,73,74,75,76,77,78,79,80,81,82,83,84,85,86,87,88,89,90,91,92,93,94,95,96,97,98,99,100,101,102,103,104,105,106,107,108,109,110,111,112,113,114,115,116,117,118,119,120,121,122,123,124,125,126,127,128,129,130,131,132,133,134,135,136,137,138,139,140,141,142,143,144,145,146,147,148,149,150,151,152,153,154,155,156,157,158,159,160,161,162,163,164,165,166,167,168,169,170,171,172,173,174,175,176,177,178,179,180,181,182,183,184,185,186,187,188,189,190,191,192,193,194,195,196,197,198,199,200,201,202,203,204,205,206,207,208,209,210,211,212,213,214,215,216,217,218,219,220,221,222,223,224,225,226,227,228,229,230,231,232,233,234,235,236,237,238,239,240,241,242,243,244,245,246,247,248,249,250,251,252,253,254,255,256,257,258,259,260,261,262,263,264,265,266,267,268,269,270,271,272,273,274,275,276,277,278,279,280,281,282,283,284,285,286,287,288,289,290,291,292,293,294,295,296,297,298,299,300],"tree_info":[0,0,0,0,0,0,0,0,0,0,0,0,0,0,0,0,0,0,0,0,0,0,0,0,0,0,0,0,0,0,0,0,0,0,0,0,0,0,0,0,0,0,0,0,0,0,0,0,0,0,0,0,0,0,0,0,0,0,0,0,0,0,0,0,0,0,0,0,0,0,0,0,0,0,0,0,0,0,0,0,0,0,0,0,0,0,0,0,0,0,0,0,0,0,0,0,0,0,0,0,0,0,0,0,0,0,0,0,0,0,0,0,0,0,0,0,0,0,0,0,0,0,0,0,0,0,0,0,0,0,0,0,0,0,0,0,0,0,0,0,0,0,0,0,0,0,0,0,0,0,0,0,0,0,0,0,0,0,0,0,0,0,0,0,0,0,0,0,0,0,0,0,0,0,0,0,0,0,0,0,0,0,0,0,0,0,0,0,0,0,0,0,0,0,0,0,0,0,0,0,0,0,0,0,0,0,0,0,0,0,0,0,0,0,0,0,0,0,0,0,0,0,0,0,0,0,0,0,0,0,0,0,0,0,0,0,0,0,0,0,0,0,0,0,0,0,0,0,0,0,0,0,0,0,0,0,0,0,0,0,0,0,0,0,0,0,0,0,0,0,0,0,0,0,0,0,0,0,0,0,0,0,0,0,0,0,0,0,0,0,0,0,0,0,0,0,0,0,0,0],"trees":[{"base_weights":[1.4415067E-1,-3.872383E0,4.063819E1,-4.953775E0,2.9608889E0,1.2706667E0,4.2888634E1,-5.8310676E0,2.9194286E0,2.4794998E0,4.5310524E1,-1.277132E0,-5.21875E-1,5.566777E0,1.553E0],"categories":[],"categories_nodes":[],"categories_segments":[],"categories_sizes":[],"default_left":[0,0,0,0,0,0,0,0,0,0,0,0,0,0,0],"id":0,"left_children":[1,3,5,7,-1,-1,9,11,-1,-1,13,-1,-1,-1,-1],"loss_changes":[4.3258473E4,7.592748E3,1.1688398E3,6.153129E3,0E0,0E0,2.4801172E2,1.579689E3,0E0,0E0,6.3410156E1,0E0,0E0,0E0,0E0],"parents":[2147483647,0,0,1,1,2,2,3,3,6,6,7,7,10,10],"right_children":[2,4,6,8,-1,-1,10,12,-1,-1,14,-1,-1,-1,-1],"split_conditions":[1.58E1,1E0,4.2E0,1E0,2.9608889E0,1.2706667E0,2.4E0,-1.58E1,2.9194286E0,2.4794998E0,1.48E1,-1.277132E0,-5.21875E-1,5.566777E0,1.553E0],"split_indices":[5,7,4,8,0,0,2,2,0,0,4,0,0,0,0],"split_type":[0,0,0,0,0,0,0,0,0,0,0,0,0,0,0],"sum_hessian":[2.64E2,2.41E2,2.3E1,2.33E2,8E0,2E0,2.1E1,2.27E2,6E0,3E0,1.8E1,5.2E1,1.75E2,1.7E1,1E0],"tree_param":{"num_deleted":"0","num_feature":"10","num_nodes":"15","size_leaf_vector":"1"}},{"base_weights":[-5.3314143E-1,-3.9453297E0,3.3753128E1,2.4861293E0,-8.763637E0,5.0658336E0,2.6127644E0,-1.8540972E0,8.937276E0,-1.9900147E0,-7.8872776E0,-4.2406353E-1,2.2005546E0,8.321367E-1,2.6845348E0,-9.909774E-1,3.287224E-1],"categories":[],"categories_nodes":[],"categories_segments":[],"categories_sizes":[],"default_left":[0,0,0,0,0,0,0,0,0,0,0,0,0,0,0,0,0],"id":1,"left_children":[1,3,5,7,9,-1,-1,11,13,-1,15,-1,-1,-1,-1,-1,-1],"loss_changes":[3.1018848E4,7.4900747E3,1.5139004E3,2.9285122E3,8.149121E2,0E0,0E0,2.2016323E3,9.748926E2,0E0,5.1919775E2,0E0,0E0,0E0,0E0,0E0,0E0],"parents":[2147483647,0,0,1,1,2,2,3,3,4,4,7,7,8,8,10,10],"right_children":[2,4,6,8,10,-1,-1,12,14,-1,16,-1,-1,-1,-1,-1,-1],"split_conditions":[1.58E1,3E1,2.8E1,5.1E0,5E0,5.0658336E0,2.6127644E0,1E0,1E0,-1.9900147E0,1.03E1,-4.2406353E-1,2.2005546E0,8.321367E-1,2.6845348E0,-9.909774E-1,3.287224E-1],"split_indices":[5,0,0,4,4,0,0,7,8,0,5,0,0,0,0,0,0],"split_type":[0,0,0,0,0,0,0,0,0,0,0,0,0,0,0,0,0],"sum_hessian":[2.63E2,2.4E2,2.3E1,1.03E2,1.37E2,1.2E1,1.1E1,6.2E1,4.1E1,1.2E1,1.25E2,5.8E1,4E0,3.7E1,4E0,1.21E2,4E0],"tree_param":{"num_deleted":"0","num_feature":"10","num_nodes":"17","size_leaf_vector":"1"}},{"base_weights":[1.07929945E-1,-3.5560765E0,2.9534695E1,2.7551425E0,-7.9540324E0,1.2238283E1,3.1643856E1,1.326646E0,2.3463247E0,-1.7872303E0,-7.1115713E0,3.3438435E-1,1.6685504E0,4.433582E0,2.193666E1,-3.7369302E-1,8.831651E-1,-8.758479E-1,1.0556233E0,1.6734842E0,3.3124E0],"categories":[],"categories_nodes":[],"categories_segments":[],"categories_sizes":[],"default_left":[0,0,0,0,0,0,0,0,0,0,0,0,0,0,0,0,0,0,0,0,0],"id":2,"left_children":[1,3,5,7,9,11,13,15,-1,-1,17,-1,-1,-1,19,-1,-1,-1,-1,-1,-1],"loss_changes":[3.018677E4,6.9332734E3,7.436426E2,2.4455718E3,7.5349023E2,4.000171E1,5.793125E2,2.594889E3,0E0,0E0,4.6020557E2,0E0,0E0,0E0,1.5843799E2,0E0,0E0,0E0,0E0,0E0,0E0],"parents":[2147483647,0,0,1,1,2,2,3,3,4,4,5,5,6,6,7,7,10,10,14,14],"right_children":[2,4,6,8,10,12,14,16,-1,-1,18,-1,-1,-1,20,-1,-1,-1,-1,-1,-1],"split_conditions":[1.47E1,3E1,1.6E1,1E0,5E0,2E1,2.8E1,5.1E0,2.3463247E0,-1.7872303E0,1E0,3.3438435E-1,1.6685504E0,4.433582E0,2.03E1,-3.7369302E-1,8.831651E-1,-8.758479E-1,1.0556233E0,1.6734842E0,3.3124E0],"split_indices":[5,0,5,7,4,0,0,4,0,0,7,0,0,0,5,0,0,0,0,0,0],"split_type":[0,0,0,0,0,0,0,0,0,0,0,0,0,0,0,0,0,0,0,0,0],"sum_hessian":[2.78E2,2.48E2,3E1,1.02E2,1.46E2,4E0,2.6E1,9.5E1,7E0,1.4E1,1.32E2,1E0,3E0,1.5E1,1.1E1,5.5E1,4E1,1.31E2,1E0,6E0,5E0],"tree_param":{"num_deleted":"0","num_feature":"10","num_nodes":"21","size_leaf_vector":"1"}},{"base_weights":[3.0124605E-1,-2.865075E0,2.531568E1,2.6426823E0,-6.878749E0,1.1170277E1,2.699758E1,1.0947666E0,2.263218E0,-1.5619569E0,-6.2640204E0,3.1432125E-1,1.5183808E0,1.1738151E0,2.874198E1,-3.2975572E-1,7.851947E-1,-7.727305E-1,9.9228585E-1,2.4647405E0,3.9760537E0],"categories":[],"categories_nodes":[],"categories_segments":[],"categories_sizes":[],"default_left":[0,0,0,0,0,0,0,0,0,0,0,0,0,0,0,0,0,0,0,0,0],"id":3,"left_children":[1,3,5,7,9,11,13,15,-1,-1,17,-1,-1,-1,19,-1,-1,-1,-1,-1,-1],"loss_changes":[2.1853557E4,5.434232E3,4.3595703E2,2.5900928E3,4.5422217E2,3.0257751E1,5.2969336E2,2.0279526E3,0E0,0E0,3.8718164E2,0E0,0E0,0E0,1.8401758E2,0E0,0E0,0E0,0E0,0E0,0E0],"parents":[2147483647,0,0,1,1,2,2,3,3,4,4,5,5,6,6,7,7,10,10,14,14],"right_children":[2,4,6,8,10,12,14,16,-1,-1,18,-1,-1,-1,20,-1,-1,-1,-1,-1,-1],"split_conditions":[1.47E1,3E1,1.6E1,1E0,4.9E0,2E1,4.2E0,5.1E0,2.263218E0,-1.5619569E0,1E0,3.1432125E-1,1.5183808E0,1.1738151E0,1E0,-3.2975572E-1,7.851947E-1,-7.727305E-1,9.9228585E-1,2.4647405E0,3.9760537E0],"split_indices":[5,0,5,7,4,0,4,4,0,0,7,0,0,0,9,0,0,0,0,0,0],"split_type":[0,0,0,0,0,0,0,0,0,0,0,0,0,0,0,0,0,0,0,0,0],"sum_hessian":[2.74E2,2.44E2,3E1,1.03E2,1.41E2,4E0,2.6E1,9.5E1,8E0,1.1E1,1.3E2,1E0,3E0,3E0,2.3E1,5.6E1,3.9E1,1.29E2,1E0,1E1,1.3E1],"tree_param":{"num_deleted":"0","num_feature":"10","num_nodes":"21","size_leaf_vector":"1"}},{"base_weights":[-3.681956E-2,-2.7432802E0,2.273605E1,2.1675045E0,-6.1111093E0,3.2409084E0,1.623031E1,8.7341076E-1,2.0328488E0,-1.398909E0,-5.5230255E0,1.0558219E1,2.6440072E0,-1.7820463E-2,2.266657E0,-6.8191653E-1,9.327486E-1,3.0849186E-1,1.3482366E0],"categories":[],"categories_nodes":[],"categories_segments":[],"categories_sizes":[],"default_left":[0,0,0,0,0,0,0,0,0,0,0,0,0,0,0,0,0,0,0],"id":4,"left_children":[1,3,5,7,9,-1,11,13,-1,-1,15,17,-1,-1,-1,-1,-1,-1,-1],"loss_changes":[1.6826785E4,4.0486846E3,3.6755078E2,1.8969565E3,4.0857422E2,0E0,2.2818555E2,1.7149536E3,0E0,0E0,3.264226E2,1.9790405E1,0E0,0E0,0E0,0E0,0E0,0E0,0E0],"parents":[2147483647,0,0,1,1,2,2,3,3,4,4,6,6,7,7,10,10,11,11],"right_children":[2,4,6,8,10,-1,12,14,-1,-1,16,18,-1,-1,-1,-1,-1,-1,-1],"split_conditions":[1.47E1,3E1,2.8E1,1E0,5E0,3.2409084E0,2.03E1,1E0,2.0328488E0,-1.398909E0,1E0,2.4E0,2.6440072E0,-1.7820463E-2,2.266657E0,-6.8191653E-1,9.327486E-1,3.0849186E-1,1.3482366E0],"split_indices":[5,0,0,7,4,0,5,8,0,0,7,2,0,0,0,0,0,0,0],"split_type":[0,0,0,0,0,0,0,0,0,0,0,0,0,0,0,0,0,0,0],"sum_hessian":[2.71E2,2.43E2,2.8E1,9.9E1,1.44E2,1.5E1,1.3E1,9.2E1,7E0,1.2E1,1.32E2,8E0,5E0,8.8E1,4E0,1.31E2,1E0,1E0,7E0],"tree_param":{"num_deleted":"0","num_feature":"10","num_nodes":"19","size_leaf_vector":"1"}},{"base_weights":[9.9478774E-2,-2.2526557E0,1.9070047E1,1.9227693E0,-5.413286E0,1.9930288E1,4.684459E0,8.224229E-1,1.8193997E0,-1.2509245E0,-4.853307E0,8.511773E-1,2.118702E1,1.010075E-1,7.421951E-1,-2.8895313E-1,6.679982E-1,-6.010845E-1,8.7678367E-1,3.1332724E0,1.9396708E0],"categories":[],"categories_nodes":[],"categories_segments":[],"categories_sizes":[],"default_left":[0,0,0,0,0,0,0,0,0,0,0,0,0,0,0,0,0,0,0,0,0],"id":5,"left_children":[1,3,5,7,9,11,13,15,-1,-1,17,-1,19,-1,-1,-1,-1,-1,-1,-1,-1],"loss_changes":[1.2135339E4,3.2040764E3,2.7788965E2,1.5171046E3,3.366499E2,3.0143652E2,1.2091995E1,1.5153125E3,0E0,0E0,2.7519995E2,0E0,1.9624023E2,0E0,0E0,0E0,0E0,0E0,0E0,0E0,0E0],"parents":[2147483647,0,0,1,1,2,2,3,3,4,4,5,5,6,6,7,7,10,10,12,12],"right_children":[2,4,6,8,10,12,14,16,-1,-1,18,-1,20,-1,-1,-1,-1,-1,-1,-1,-1],"split_conditions":[1.47E1,3E1,3.33E1,1E0,5E0,4.2E0,2E1,5.1E0,1.8193997E0,-1.2509245E0,1E0,8.511773E-1,1.6E1,1.010075E-1,7.421951E-1,-2.8895313E-1,6.679982E-1,-6.010845E-1,8.7678367E-1,3.1332724E0,1.9396708E0],"split_indices":[5,0,1,7,4,4,0,4,0,0,7,0,1,0,0,0,0,0,0,0,0],"split_type":[0,0,0,0,0,0,0,0,0,0,0,0,0,0,0,0,0,0,0,0,0],"sum_hessian":[2.7E2,2.41E2,2.9E1,1.04E2,1.37E2,2.7E1,2E0,9.7E1,7E0,1.2E1,1.25E2,3E0,2.4E1,1E0,1E0,5.8E1,3.9E1,1.24E2,1E0,1E1,1.4E1],"tree_param":{"num_deleted":"0","num_feature":"10","num_nodes":"21","size_leaf_vector":"1"}},{"base_weights":[-9.5926166E-2,-2.1086247E0,1.7590494E1,-2.756437E0,1.6146468E0,1.3752634E1,2.713941E1,-3.0568573E0,1.8608721E0,1.1471037E1,2.9254887E0,9.4309545E-1,3.4851522E0,-6.2970966E-1,-2.7661183E-1,9.494705E-2,1.4389786E0],"categories":[],"categories_nodes":[],"categories_segments":[],"categories_sizes":[],"default_left":[0,0,0,0,0,0,0,0,0,0,0,0,0,0,0,0,0],"id":6,"left_children":[1,3,5,7,-1,9,11,13,-1,15,-1,-1,-1,-1,-1,-1,-1],"loss_changes":[9.75519E3,2.5173984E3,6.5288965E2,1.347773E3,0E0,2.5374219E2,2.8651367E1,3.732771E2,0E0,1.0167871E2,0E0,0E0,0E0,0E0,0E0,0E0,0E0],"parents":[2147483647,0,0,1,1,2,2,3,3,5,5,6,6,7,7,9,9],"right_children":[2,4,6,8,-1,10,12,14,-1,16,-1,-1,-1,-1,-1,-1,-1],"split_conditions":[1.47E1,1E0,1E0,1E0,1.6146468E0,1E0,1.48E1,-1.48E1,1.8608721E0,1.48E1,2.9254887E0,9.4309545E-1,3.4851522E0,-6.2970966E-1,-2.7661183E-1,9.494705E-2,1.4389786E0],"split_indices":[5,7,8,8,0,7,5,1,0,5,0,0,0,0,0,0,0],"split_type":[0,0,0,0,0,0,0,0,0,0,0,0,0,0,0,0,0],"sum_hessian":[2.72E2,2.45E2,2.7E1,2.36E2,9E0,2.1E1,6E0,2.33E2,3E0,1.9E1,2E0,1E0,5E0,5.8E1,1.75E2,1E0,1.8E1],"tree_param":{"num_deleted":"0","num_feature":"10","num_nodes":"17","size_leaf_vector":"1"}},{"base_weights":[1.8432225E-1,-1.7090738E0,1.6406849E1,2.0733223E0,-4.3340607E0,1.1112642E1,2.3578564E1,-5.7779294E-1,5.837773E0,-1.0408152E0,-3.9034739E0,1.6876762E0,7.345184E0,3.4635558E0,1.3757622E0,-2.2180186E-1,1.0949606E0,5.321732E-1,1.8062866E0,-4.8320925E-1,7.272979E-1,1.613565E-1,1.0412688E0],"categories":[],"categories_nodes":[],"categories_segments":[],"categories_sizes":[],"default_left":[0,0,0,0,0,0,0,0,0,0,0,0,0,0,0,0,0,0,0,0,0,0,0],"id":7,"left_children":[1,3,5,7,9,11,13,15,17,-1,19,-1,21,-1,-1,-1,-1,-1,-1,-1,-1,-1,-1],"loss_changes":[8.229124E3,2.3918835E3,8.010996E2,9.913921E2,2.314685E2,9.6839355E1,3.7325537E2,7.4418945E2,4.6329663E2,0E0,1.8531262E2,0E0,6.826294E1,0E0,0E0,0E0,0E0,0E0,0E0,0E0,0E0,0E0,0E0],"parents":[2147483647,0,0,1,1,2,2,3,3,4,4,5,5,6,6,7,7,8,8,10,10,12,12],"right_children":[2,4,6,8,10,12,14,16,18,-1,20,-1,22,-1,-1,-1,-1,-1,-1,-1,-1,-1,-1],"split_conditions":[1.47E1,3E1,1.22E1,5.1E0,5E0,2.5E1,9.8E0,1E0,1E0,-1.0408152E0,1E0,1.6876762E0,3.5E0,3.4635558E0,1.3757622E0,-2.2180186E-1,1.0949606E0,5.321732E-1,1.8062866E0,-4.8320925E-1,7.272979E-1,1.613565E-1,1.0412688E0],"split_indices":[5,0,2,4,4,0,4,7,8,0,7,0,2,0,0,0,0,0,0,0,0,0,0],"split_type":[0,0,0,0,0,0,0,0,0,0,0,0,0,0,0,0,0,0,0,0,0,0,0],"sum_hessian":[2.66E2,2.39E2,2.7E1,9.8E1,1.41E2,1.7E1,1E1,5.8E1,4E1,1.1E1,1.3E2,8E0,9E0,6E0,4E0,5.2E1,6E0,3.6E1,4E0,1.29E2,1E0,2E0,7E0],"tree_param":{"num_deleted":"0","num_feature":"10","num_nodes":"23","size_leaf_vector":"1"}},{"base_weights":[7.546728E-2,-1.6194322E0,1.5084739E1,1.3156873E0,-3.8197024E0,1.1638101E1,2.851448E0,5.848457E-1,1.6224855E0,-9.3422145E-1,-3.3597305E0,1.8522378E0,7.187479E0,2.9391479E-3,9.823362E-1,-4.1699958E-1,6.8366E-1,1.7875288E-1,9.813711E-1],"categories":[],"categories_nodes":[],"categories_segments":[],"categories_sizes":[],"default_left":[0,0,0,0,0,0,0,0,0,0,0,0,0,0,0,0,0,0,0],"id":8,"left_children":[1,3,5,7,9,11,-1,13,-1,-1,15,-1,17,-1,-1,-1,-1,-1,-1],"loss_changes":[7.0202104E3,1.6066233E3,5.608677E2,9.4652606E2,2.3285303E2,2.6085815E2,0E0,4.3425873E2,0E0,0E0,1.5446765E2,0E0,5.5550476E1,0E0,0E0,0E0,0E0,0E0,0E0],"parents":[2147483647,0,0,1,1,2,2,3,3,4,4,5,5,7,7,10,10,12,12],"right_children":[2,4,6,8,10,12,-1,14,-1,-1,16,-1,18,-1,-1,-1,-1,-1,-1],"split_conditions":[1.58E1,3E1,1E0,1E0,5E0,2.8E1,2.851448E0,1E0,1.6224855E0,-9.3422145E-1,1E0,1.8522378E0,4.2E0,2.9391479E-3,9.823362E-1,-4.1699958E-1,6.8366E-1,1.7875288E-1,9.813711E-1],"split_indices":[5,0,8,8,4,0,0,7,0,0,7,0,4,0,0,0,0,0,0],"split_type":[0,0,0,0,0,0,0,0,0,0,0,0,0,0,0,0,0,0,0],"sum_hessian":[2.74E2,2.47E2,2.7E1,1.06E2,1.41E2,2.1E1,6E0,1.01E2,5E0,1.3E1,1.28E2,1E1,1.1E1,9.5E1,6E0,1.27E2,1E0,2E0,9E0],"tree_param":{"num_deleted":"0","num_feature":"10","num_nodes":"19","size_leaf_vector":"1"}},{"base_weights":[1.4243802E-1,-1.3253988E0,1.4876031E1,1.5985299E0,-3.3751698E0,2.2490484E1,9.663149E0,-7.541529E-1,4.734741E0,-8.2709426E-1,-2.9974787E0,1.163026E0,3.2729366E0,1.6445267E-1,1.0749934E1,-1.9603388E-1,8.568153E-1,4.4913456E-1,1.3830031E0,-3.724492E-1,6.4264035E-1,1.8699417E-2,1.3863454E0],"categories":[],"categories_nodes":[],"categories_segments":[],"categories_sizes":[],"default_left":[0,0,0,0,0,0,0,0,0,0,0,0,0,0,0,0,0,0,0,0,0,0,0],"id":9,"left_children":[1,3,5,7,9,11,13,15,17,-1,19,-1,-1,-1,21,-1,-1,-1,-1,-1,-1,-1,-1],"loss_changes":[5.7291157E3,1.4498009E3,7.353086E2,7.4142175E2,1.6797937E2,2.8671436E2,1.2946606E2,4.1434235E2,2.4649695E2,0E0,1.3201074E2,0E0,0E0,0E0,1.17290405E2,0E0,0E0,0E0,0E0,0E0,0E0,0E0,0E0],"parents":[2147483647,0,0,1,1,2,2,3,3,4,4,5,5,6,6,7,7,8,8,10,10,14,14],"right_children":[2,4,6,8,10,12,14,16,18,-1,20,-1,-1,-1,22,-1,-1,-1,-1,-1,-1,-1,-1],"split_conditions":[1.58E1,3E1,2.1E1,5.1E0,5E0,9.1E0,4.2E0,1E0,1E0,-8.2709426E-1,1E0,1.163026E0,3.2729366E0,1.6445267E-1,2.4E0,-1.9603388E-1,8.568153E-1,4.4913456E-1,1.3830031E0,-3.724492E-1,6.4264035E-1,1.8699417E-2,1.3863454E0],"split_indices":[5,0,0,4,4,2,4,7,8,0,7,0,0,0,2,0,0,0,0,0,0,0,0],"split_type":[0,0,0,0,0,0,0,0,0,0,0,0,0,0,0,0,0,0,0,0,0,0,0],"sum_hessian":[2.63E2,2.4E2,2.3E1,9.9E1,1.41E2,8E0,1.5E1,5.7E1,4.2E1,1.2E1,1.29E2,3E0,5E0,2E0,1.3E1,5.2E1,5E0,3.8E1,4E0,1.28E2,1E0,1E0,1.2E1],"tree_param":{"num_deleted":"0","num_feature":"10","num_nodes":"23","size_leaf_vector":"1"}},{"base_weights":[3.9984637E-1,-1.0588204E0,1.3513038E1,1.5185065E0,-2.965843E0,1.945905E1,9.458973E0,7.4537706E-1,9.596498E0,-7.3796064E-1,-2.5915167E0,1.1354007E0,2.9456425E0,7.305481E0,1.8203791E0,7.1991715E-3,1.3219365E0,7.9316616E-1,1.604018E0,-3.230387E-1,6.0408187E-1,9.36765E-1,1.7577438E-2],"categories":[],"categories_nodes":[],"categories_segments":[],"categories_sizes":[],"default_left":[0,0,0,0,0,0,0,0,0,0,0,0,0,0,0,0,0,0,0,0,0,0,0],"id":10,"left_children":[1,3,5,7,9,11,13,15,17,-1,19,-1,-1,21,-1,-1,-1,-1,-1,-1,-1,-1,-1],"loss_changes":[5.159679E3,1.1988538E3,4.6678662E2,6.423616E2,1.5091382E2,2.7640796E2,1.10546265E2,6.751229E2,1.29991455E1,0E0,1.1085339E2,0E0,0E0,5.264508E1,0E0,0E0,0E0,0E0,0E0,0E0,0E0,0E0,0E0],"parents":[2147483647,0,0,1,1,2,2,3,3,4,4,5,5,6,6,7,7,8,8,10,10,13,13],"right_children":[2,4,6,8,10,12,14,16,18,-1,20,-1,-1,22,-1,-1,-1,-1,-1,-1,-1,-1,-1],"split_conditions":[1.58E1,3E1,2.1E1,1E0,5E0,9.1E0,1E0,1E0,2.115E3,-7.3796064E-1,1E0,1.1354007E0,2.9456425E0,1.1402E4,1.8203791E0,7.1991715E-3,1.3219365E0,7.9316616E-1,1.604018E0,-3.230387E-1,6.0408187E-1,9.36765E-1,1.7577438E-2],"split_indices":[5,0,0,7,4,2,8,8,3,0,7,0,0,3,0,0,0,0,0,0,0,0,0],"split_type":[0,0,0,0,0,0,0,0,0,0,0,0,0,0,0,0,0,0,0,0,0,0,0],"sum_hessian":[2.68E2,2.42E2,2.6E1,1.03E2,1.39E2,9E0,1.7E1,9.5E1,8E0,1.3E1,1.26E2,4E0,5E0,1.4E1,3E0,9E1,5E0,6E0,2E0,1.25E2,1E0,1.3E1,1E0],"tree_param":{"num_deleted":"0","num_feature":"10","num_nodes":"23","size_leaf_vector":"1"}},{"base_weights":[6.2471867E-2,-1.0794939E0,1.1669854E1,-1.4590836E0,8.994135E0,1.645541E1,8.731366E0,4.8046663E-1,-2.7692802E0,6.918171E-1,1.3906908E0,9.561678E-1,2.3945043E0,6.829193E-2,9.205939E0,-1.7408936E-1,4.0082455E-1,-6.5746087E-1,-2.9129377E-1,7.9402E-1,1.3907434E0],"categories":[],"categories_nodes":[],"categories_segments":[],"categories_sizes":[],"default_left":[0,0,0,0,0,0,0,0,0,0,0,0,0,0,0,0,0,0,0,0,0],"id":11,"left_children":[1,3,5,7,9,11,13,15,17,-1,-1,-1,-1,-1,19,-1,-1,-1,-1,-1,-1],"loss_changes":[3.5517449E3,9.4614154E2,1.938169E2,6.010519E2,8.59906E0,7.856738E1,6.061194E1,5.350306E2,1.1729675E2,0E0,0E0,0E0,0E0,0E0,2.2055786E1,0E0,0E0,0E0,0E0,0E0,0E0],"parents":[2147483647,0,0,1,1,2,2,3,3,4,4,5,5,6,6,7,7,8,8,14,14],"right_children":[2,4,6,8,10,12,14,16,18,-1,-1,-1,-1,-1,20,-1,-1,-1,-1,-1,-1],"split_conditions":[1.48E1,1E0,2.1E1,3E1,2.115E3,9.1E0,3.7E0,5.1E0,5E0,6.918171E-1,1.3906908E0,9.561678E-1,2.3945043E0,6.829193E-2,1E0,-1.7408936E-1,4.0082455E-1,-6.5746087E-1,-2.9129377E-1,7.9402E-1,1.3907434E0],"split_indices":[5,7,0,0,3,2,4,4,4,0,0,0,0,0,9,0,0,0,0,0,0],"split_type":[0,0,0,0,0,0,0,0,0,0,0,0,0,0,0,0,0,0,0,0,0],"sum_hessian":[2.66E2,2.43E2,2.3E1,2.35E2,8E0,7E0,1.6E1,9.5E1,1.4E2,5E0,3E0,3E0,4E0,1E0,1.5E1,5.7E1,3.8E1,1.4E1,1.26E2,9E0,6E0],"tree_param":{"num_deleted":"0","num_feature":"10","num_nodes":"21","size_leaf_vector":"1"}},{"base_weights":[3.7461418E-1,-7.854634E-1,1.0758472E1,-1.1571869E0,7.9542403E0,1.7042236E1,7.707042E0,-1.4469746E0,8.405526E0,1.3644412E0,6.814706E-1,1.9861025E1,6.868698E-1,5.6154776E0,1.5430369E0,-1.3751659E-4,-2.9404968E-1,1.1496602E0,8.134025E-2,7.0992047E-1,2.5760195E0,1.799408E-2,7.662667E-1],"categories":[],"categories_nodes":[],"categories_segments":[],"categories_sizes":[],"default_left":[0,0,0,0,0,0,0,0,0,0,0,0,0,0,0,0,0,0,0,0,0,0,0],"id":12,"left_children":[1,3,5,7,9,11,13,15,17,-1,-1,19,-1,21,-1,-1,-1,-1,-1,-1,-1,-1,-1],"loss_changes":[3.2367998E3,7.954029E2,3.8636548E2,6.5784204E2,1.3155945E1,1.4154858E2,1.4329077E2,3.2932922E2,5.7064972E1,0E0,0E0,7.3598633E0,0E0,6.638461E1,0E0,0E0,0E0,0E0,0E0,0E0,0E0,0E0,0E0],"parents":[2147483647,0,0,1,1,2,2,3,3,4,4,5,5,6,6,7,7,8,8,11,11,13,13],"right_children":[2,4,6,8,10,12,14,16,18,-1,-1,20,-1,22,-1,-1,-1,-1,-1,-1,-1,-1,-1],"split_conditions":[1.6E1,1E0,1.8E1,1E0,8.3E0,2.19E1,1E0,3E1,3E1,1.3644412E0,6.814706E-1,7.3E0,6.868698E-1,4.2E0,1.5430369E0,-1.3751659E-4,-2.9404968E-1,1.1496602E0,8.134025E-2,7.0992047E-1,2.5760195E0,1.799408E-2,7.662667E-1],"split_indices":[5,7,0,8,1,5,8,0,0,0,0,1,0,4,0,0,0,0,0,0,0,0,0],"split_type":[0,0,0,0,0,0,0,0,0,0,0,0,0,0,0,0,0,0,0,0,0,0,0],"sum_hessian":[2.67E2,2.41E2,2.6E1,2.32E2,9E0,7E0,1.9E1,2.26E2,6E0,2E0,7E0,5E0,2E0,1.5E1,4E0,9.3E1,1.33E2,5E0,1E0,1E0,4E0,2E0,1.3E1],"tree_param":{"num_deleted":"0","num_feature":"10","num_nodes":"23","size_leaf_vector":"1"}},{"base_weights":[2.6985124E-1,-6.4914554E-1,1.0207258E1,-9.4662076E-1,7.388706E0,4.9361153E0,1.268946E1,-1.1963601E0,7.572719E0,1.255286E0,6.0199213E-1,8.6976653E-1,2.5721366E0,8.657375E-1,1.4705502E1,1.0095202E-2,-2.4249098E-1,1.0346941E0,7.645981E-2,3.4514174E-1,6.311485E-2,1.9804232E0,6.010724E-1],"categories":[],"categories_nodes":[],"categories_segments":[],"categories_sizes":[],"default_left":[0,0,0,0,0,0,0,0,0,0,0,0,0,0,0,0,0,0,0,0,0,0,0],"id":13,"left_children":[1,3,5,7,9,11,13,15,17,-1,-1,-1,19,-1,21,-1,-1,-1,-1,-1,-1,-1,-1],"loss_changes":[2.4815186E3,6.023686E2,2.3829639E2,5.218148E2,1.3106934E1,3.054538E1,5.9474365E1,2.4824329E2,4.546936E1,0E0,0E0,0E0,2.220028E0,0E0,9.168115E1,0E0,0E0,0E0,0E0,0E0,0E0,0E0,0E0],"parents":[2147483647,0,0,1,1,2,2,3,3,4,4,5,5,6,6,7,7,8,8,12,12,14,14],"right_children":[2,4,6,8,10,12,14,16,18,-1,-1,-1,20,-1,22,-1,-1,-1,-1,-1,-1,-1,-1],"split_conditions":[1.72E1,1E0,4.719291E6,1E0,8.3E0,2.3E1,1E0,3E1,3E1,1.255286E0,6.0199213E-1,8.6976653E-1,3.5E1,8.657375E-1,1.85E1,1.0095202E-2,-2.4249098E-1,1.0346941E0,7.645981E-2,3.4514174E-1,6.311485E-2,1.9804232E0,6.010724E-1],"split_indices":[5,7,6,8,1,0,9,0,0,0,0,0,0,0,2,0,0,0,0,0,0,0,0],"split_type":[0,0,0,0,0,0,0,0,0,0,0,0,0,0,0,0,0,0,0,0,0,0,0],"sum_hessian":[2.7E2,2.48E2,2.2E1,2.4E2,8E0,8E0,1.4E1,2.34E2,6E0,2E0,6E0,3E0,5E0,5E0,9E0,9.2E1,1.42E2,5E0,1E0,4E0,1E0,7E0,2E0],"tree_param":{"num_deleted":"0","num_feature":"10","num_nodes":"23","size_leaf_vector":"1"}},{"base_weights":[1.2315793E-1,-7.983265E-1,8.148838E0,-9.726116E-1,6.277086E0,6.2767453E0,1.5442125E0,-1.1656842E0,6.711469E-1,8.751514E-1,7.187233E-2,4.951352E0,1.5624541E0,-2.3162667E-1,-9.9869885E-2,1.6640183E-1,7.256556E-1],"categories":[],"categories_nodes":[],"categories_segments":[],"categories_sizes":[],"default_left":[0,0,0,0,0,0,0,0,0,0,0,0,0,0,0,0,0],"id":14,"left_children":[1,3,5,7,9,11,-1,13,-1,-1,-1,15,-1,-1,-1,-1,-1],"loss_changes":[2.0106965E3,3.0699112E2,1.6662292E2,3.0948035E2,3.0240631E1,1.3216858E2,0E0,5.7790833E1,0E0,0E0,0E0,6.973624E1,0E0,0E0,0E0,0E0,0E0],"parents":[2147483647,0,0,1,1,2,2,3,3,4,4,5,5,7,7,11,11],"right_children":[2,4,6,8,10,12,-1,14,-1,-1,-1,16,-1,-1,-1,-1,-1],"split_conditions":[1.58E1,1E0,1E0,1E0,1.02E1,1E0,1.5442125E0,5.2E0,6.711469E-1,8.751514E-1,7.187233E-2,6.3E0,1.5624541E0,-2.3162667E-1,-9.9869885E-2,1.6640183E-1,7.256556E-1],"split_indices":[5,8,8,7,4,7,0,4,0,0,0,4,0,0,0,0,0],"split_type":[0,0,0,0,0,0,0,0,0,0,0,0,0,0,0,0,0],"sum_hessian":[2.7E2,2.43E2,2.7E1,2.38E2,5E0,2.1E1,6E0,2.32E2,6E0,4E0,1E0,1.9E1,2E0,6.9E1,1.63E2,5E0,1.4E1],"tree_param":{"num_deleted":"0","num_feature":"10","num_nodes":"17","size_leaf_vector":"1"}},{"base_weights":[3.3022743E-1,-5.45561E-1,7.868741E0,1.1313459E0,-1.7282329E0,1.3108999E1,5.605522E0,6.718774E-1,5.906638E0,-1.7819786E0,3.671189E-1,6.309369E-1,2.0121784E0,4.2529464E0,1.1224428E0,2.9426057E-2,8.437093E-1,1.1011713E0,4.3937936E-1,-2.1624404E-1,6.7559965E-2,5.838538E-1,-5.176559E-2],"categories":[],"categories_nodes":[],"categories_segments":[],"categories_sizes":[],"default_left":[0,0,0,0,0,0,0,0,0,0,0,0,0,0,0,0,0,0,0,0,0,0,0],"id":15,"left_children":[1,3,5,7,9,11,13,15,17,19,-1,-1,-1,21,-1,-1,-1,-1,-1,-1,-1,-1,-1],"loss_changes":[1.8396886E3,4.9776285E2,2.70453E2,2.2421751E2,4.3276337E1,1.4166602E2,7.175226E1,2.5873798E2,3.2470856E1,7.880768E0,0E0,0E0,0E0,5.3743713E1,0E0,0E0,0E0,0E0,0E0,0E0,0E0,0E0,0E0],"parents":[2147483647,0,0,1,1,2,2,3,3,4,4,5,5,6,6,7,7,8,8,9,9,13,13],"right_children":[2,4,6,8,10,12,14,16,18,20,-1,-1,-1,22,-1,-1,-1,-1,-1,-1,-1,-1,-1],"split_conditions":[1.58E1,3E1,1.8E1,1E0,1E0,9.1E0,1E0,1E0,8.3E0,1.39E1,3.671189E-1,6.309369E-1,2.0121784E0,1.1402E4,1.1224428E0,2.9426057E-2,8.437093E-1,1.1011713E0,4.3937936E-1,-2.1624404E-1,6.7559965E-2,5.838538E-1,-5.176559E-2],"split_indices":[5,0,0,7,7,2,8,8,1,5,0,0,0,3,0,0,0,0,0,0,0,0,0],"split_type":[0,0,0,0,0,0,0,0,0,0,0,0,0,0,0,0,0,0,0,0,0,0,0],"sum_hessian":[2.77E2,2.49E2,2.8E1,1.03E2,1.46E2,7E0,2.1E1,9.5E1,8E0,1.45E2,1E0,3E0,4E0,1.7E1,4E0,9E1,5E0,2E0,6E0,1.44E2,1E0,1.5E1,2E0],"tree_param":{"num_deleted":"0","num_feature":"10","num_nodes":"23","size_leaf_vector":"1"}},{"base_weights":[2.2155258E-1,-5.733602E-1,7.3394656E0,7.8458565E-1,-1.5237184E0,1.186631E1,5.265455E0,-7.0641196E-1,3.0928602E0,-4.7186542E-1,-1.2822909E0,1.6938365E0,4.095465E-1,2.3047638E-1,5.783322E0,-1.3092647E-1,3.8323632E-1,3.122472E-1,1.0130776E0,-7.432447E-2,-1.9111289E-1,1.1023453E-1,-6.874878E-2,1.4312668E-2,7.309638E-1],"categories":[],"categories_nodes":[],"categories_segments":[],"categories_sizes":[],"default_left":[0,0,0,0,0,0,0,0,0,0,0,0,0,0,0,0,0,0,0,0,0,0,0,0,0],"id":16,"left_children":[1,3,5,7,9,11,13,15,17,-1,19,-1,-1,21,23,-1,-1,-1,-1,-1,-1,-1,-1,-1,-1],"loss_changes":[1.5771655E3,3.2511978E2,2.0040295E2,3.6011456E2,8.1016266E1,1.03919556E2,5.3423523E1,9.949224E1,8.567871E1,0E0,2.699086E1,0E0,0E0,2.184815E0,3.2424133E1,0E0,0E0,0E0,0E0,0E0,0E0,0E0,0E0,0E0,0E0],"parents":[2147483647,0,0,1,1,2,2,3,3,4,4,5,5,6,6,7,7,8,8,10,10,13,13,14,14],"right_children":[2,4,6,8,10,12,14,16,18,-1,20,-1,-1,22,24,-1,-1,-1,-1,-1,-1,-1,-1,-1,-1],"split_conditions":[1.58E1,3E1,1.8E1,5.1E0,5E0,2.19E1,2.529088E6,1E0,1E0,-4.7186542E-1,-1.48E1,1.6938365E0,4.095465E-1,3.3E1,3.7E0,-1.3092647E-1,3.8323632E-1,3.122472E-1,1.0130776E0,-7.432447E-2,-1.9111289E-1,1.1023453E-1,-6.874878E-2,1.4312668E-2,7.309638E-1],"split_indices":[5,0,0,4,4,5,6,7,7,0,1,0,0,0,4,0,0,0,0,0,0,0,0,0,0],"split_type":[0,0,0,0,0,0,0,0,0,0,0,0,0,0,0,0,0,0,0,0,0,0,0,0,0],"sum_hessian":[2.77E2,2.5E2,2.7E1,1.03E2,1.47E2,7E0,2E1,6.3E1,4E1,1.2E1,1.35E2,5E0,2E0,2E0,1.8E1,5.8E1,5E0,3.8E1,2E0,4.4E1,9.1E1,1E0,1E0,1E0,1.7E1],"tree_param":{"num_deleted":"0","num_feature":"10","num_nodes":"25","size_leaf_vector":"1"}},{"base_weights":[1.4562699E-1,-4.7925648E-1,5.5412045E0,-6.5919864E-1,5.6558304E0,4.052982E0,1.131225E0,-7.927202E-1,6.8016493E-1,3.1042144E-1,8.773029E-1,2.9124992E0,1.2366244E0,1.6896078E-2,-1.688619E-1,5.8759934E-1,1.01273134E-1],"categories":[],"categories_nodes":[],"categories_segments":[],"categories_sizes":[],"default_left":[0,0,0,0,0,0,0,0,0,0,0,0,0,0,0,0,0],"id":17,"left_children":[1,3,5,7,9,11,-1,13,-1,-1,-1,15,-1,-1,-1,-1,-1],"loss_changes":[9.096179E2,2.7088684E2,1.237099E2,2.0387134E2,1.6642715E1,1.26858215E2,0E0,1.3327644E2,0E0,0E0,0E0,7.795451E1,0E0,0E0,0E0,0E0,0E0],"parents":[2147483647,0,0,1,1,2,2,3,3,4,4,5,5,7,7,11,11],"right_children":[2,4,6,8,10,12,-1,14,-1,-1,-1,16,-1,-1,-1,-1,-1],"split_conditions":[1.48E1,1E0,1E0,1E0,2.5E0,1E0,1.131225E0,3E1,6.8016493E-1,3.1042144E-1,8.773029E-1,2.8E1,1.2366244E0,1.6896078E-2,-1.688619E-1,5.8759934E-1,1.01273134E-1],"split_indices":[5,7,8,8,4,7,0,0,0,0,0,0,0,0,0,0,0],"split_type":[0,0,0,0,0,0,0,0,0,0,0,0,0,0,0,0,0],"sum_hessian":[2.68E2,2.41E2,2.7E1,2.35E2,6E0,2.1E1,6E0,2.31E2,4E0,3E0,3E0,1.9E1,2E0,9.2E1,1.39E2,9E0,1E1],"tree_param":{"num_deleted":"0","num_feature":"10","num_nodes":"17","size_leaf_vector":"1"}},{"base_weights":[2.4768303E-1,-4.0936968E-1,5.561554E0,-5.8747107E-1,4.895793E0,9.8929615E0,3.8131707E0,-7.468103E-1,4.7318845E0,3.0131578E-1,7.9834557E-1,3.7156734E0,1.5427439E0,2.7827897E0,8.35918E-1,4.0844246E-3,-1.4879121E-1,6.6009724E-1,7.0996857E-3,5.060124E-1,1.3274299E-1,3.9337474E-1,-1.14203334E-1],"categories":[],"categories_nodes":[],"categories_segments":[],"categories_sizes":[],"default_left":[0,0,0,0,0,0,0,0,0,0,0,0,0,0,0,0,0,0,0,0,0,0,0],"id":18,"left_children":[1,3,5,7,9,11,13,15,17,-1,-1,19,-1,21,-1,-1,-1,-1,-1,-1,-1,-1,-1],"loss_changes":[9.519629E2,2.3247636E2,1.8946527E2,2.0356317E2,1.6817642E1,9.866876E1,5.5332886E1,8.860338E1,2.4825394E1,0E0,0E0,5.658493E-1,0E0,3.826622E1,0E0,0E0,0E0,0E0,0E0,0E0,0E0,0E0,0E0],"parents":[2147483647,0,0,1,1,2,2,3,3,4,4,5,5,6,6,7,7,8,8,11,11,13,13],"right_children":[2,4,6,8,10,12,14,16,18,-1,-1,20,-1,22,-1,-1,-1,-1,-1,-1,-1,-1,-1],"split_conditions":[1.58E1,1E0,1.8E1,1E0,2.115E3,9.1E0,1E0,3E1,3E1,3.0131578E-1,7.9834557E-1,1.3E1,1.5427439E0,1.1402E4,8.35918E-1,4.0844246E-3,-1.4879121E-1,6.6009724E-1,7.0996857E-3,5.060124E-1,1.3274299E-1,3.9337474E-1,-1.14203334E-1],"split_indices":[5,7,0,8,3,2,8,0,0,0,0,0,0,3,0,0,0,0,0,0,0,0,0],"split_type":[0,0,0,0,0,0,0,0,0,0,0,0,0,0,0,0,0,0,0,0,0,0,0],"sum_hessian":[2.71E2,2.42E2,2.9E1,2.35E2,7E0,7E0,2.2E1,2.29E2,6E0,4E0,3E0,3E0,4E0,1.8E1,4E0,8.9E1,1.4E2,5E0,1E0,2E0,1E0,1.6E1,2E0],"tree_param":{"num_deleted":"0","num_feature":"10","num_nodes":"23","size_leaf_vector":"1"}},{"base_weights":[2.4301012E-1,-2.637287E-1,4.775891E0,-4.3686235E-1,4.267049E0,1.0141555E0,3.556422E0,-5.7912886E-1,4.2593713E0,7.979797E-1,3.1635335E-1,2.5975018E0,7.5567E-1,1.9604703E-2,-1.288219E-1,6.456207E-1,1.1658935E-1,-5.5072058E-2,3.8872612E-1],"categories":[],"categories_nodes":[],"categories_segments":[],"categories_sizes":[],"default_left":[0,0,0,0,0,0,0,0,0,0,0,0,0,0,0,0,0,0,0],"id":19,"left_children":[1,3,5,7,9,-1,11,13,15,-1,-1,17,-1,-1,-1,-1,-1,-1,-1],"loss_changes":[6.168519E2,1.9169615E2,9.09588E1,1.5880606E2,1.7441147E1,0E0,4.146408E1,8.38703E1,2.0567497E1,0E0,0E0,3.68004E1,0E0,0E0,0E0,0E0,0E0,0E0,0E0],"parents":[2147483647,0,0,1,1,2,2,3,3,4,4,6,6,7,7,8,8,11,11],"right_children":[2,4,6,8,10,-1,12,14,16,-1,-1,18,-1,-1,-1,-1,-1,-1,-1],"split_conditions":[1.58E1,1E0,1.4E1,1E0,8.3E0,1.0141555E0,1E0,3E1,1.31E1,7.979797E-1,3.1635335E-1,3.5E0,7.5567E-1,1.9604703E-2,-1.288219E-1,6.456207E-1,1.1658935E-1,-5.5072058E-2,3.8872612E-1],"split_indices":[5,7,0,8,1,0,8,0,5,0,0,2,0,0,0,0,0,0,0],"split_type":[0,0,0,0,0,0,0,0,0,0,0,0,0,0,0,0,0,0,0],"sum_hessian":[2.67E2,2.41E2,2.6E1,2.33E2,8E0,5E0,2.1E1,2.27E2,6E0,2E0,6E0,1.7E1,4E0,9.1E1,1.36E2,4E0,2E0,3E0,1.4E1],"tree_param":{"num_deleted":"0","num_feature":"10","num_nodes":"19","size_leaf_vector":"1"}},{"base_weights":[2.3741738E-1,-2.6744696E-1,4.8691545E0,4.7917166E-1,-8.0802995E-1,8.169285E0,3.2233543E0,-7.1755224E-1,2.3221145E0,-3.693567E-1,-6.0820514E-1,2.6688643E0,1.3122919E0,-2.783789E-1,3.6601877E0,-1.11819774E-1,4.327635E-2,2.3986293E-1,5.0221676E-1,-7.3735644E-3,-1.0925853E-1,3.8439894E-1,6.3928984E-2,-4.4672087E-2,5.0250137E-1],"categories":[],"categories_nodes":[],"categories_segments":[],"categories_sizes":[],"default_left":[0,0,0,0,0,0,0,0,0,0,0,0,0,0,0,0,0,0,0,0,0,0,0,0,0],"id":20,"left_children":[1,3,5,7,9,11,13,15,17,-1,19,21,-1,-1,23,-1,-1,-1,-1,-1,-1,-1,-1,-1,-1],"loss_changes":[6.186395E2,9.684982E1,1.1488269E2,2.2442111E2,6.1177086E1,9.254834E1,5.449849E1,1.4660128E1,1.5723907E1,0E0,2.1264614E1,2.8601475E0,0E0,0E0,3.9834198E1,0E0,0E0,0E0,0E0,0E0,0E0,0E0,0E0,0E0,0E0],"parents":[2147483647,0,0,1,1,2,2,3,3,4,4,5,5,6,6,7,7,8,8,10,10,11,11,14,14],"right_children":[2,4,6,8,10,12,14,16,18,-1,20,22,-1,-1,24,-1,-1,-1,-1,-1,-1,-1,-1,-1,-1],"split_conditions":[1.6E1,3E1,1.8E1,5E0,5E0,9.1E0,2.4E0,2.58E1,1E0,-3.693567E-1,-1.58E1,1.3E1,1.3122919E0,-2.783789E-1,2.529088E6,-1.11819774E-1,4.327635E-2,2.3986293E-1,5.0221676E-1,-7.3735644E-3,-1.0925853E-1,3.8439894E-1,6.3928984E-2,-4.4672087E-2,5.0250137E-1],"split_indices":[5,0,0,4,4,2,2,2,8,0,2,0,0,0,6,0,0,0,0,0,0,0,0,0,0],"split_type":[0,0,0,0,0,0,0,0,0,0,0,0,0,0,0,0,0,0,0,0,0,0,0,0,0],"sum_hessian":[2.63E2,2.38E2,2.5E1,1E2,1.38E2,7E0,1.8E1,6.1E1,3.9E1,1E1,1.28E2,3E0,4E0,1E0,1.7E1,5.1E1,1E1,3.5E1,4E0,4.6E1,8.2E1,2E0,1E0,2E0,1.5E1],"tree_param":{"num_deleted":"0","num_feature":"10","num_nodes":"25","size_leaf_vector":"1"}},{"base_weights":[1.9769502E-1,-9.056987E-2,6.258805E0,-3.5697022E-1,5.289385E0,2.5087798E-1,8.937394E0,-1.2791029E0,2.5752993E-2,6.912951E-1,6.2338253E-3,1.1700373E0,2.4359366E-1,-9.8832324E-2,-3.3520913E-1,2.227216E-1,-6.734936E-2],"categories":[],"categories_nodes":[],"categories_segments":[],"categories_sizes":[],"default_left":[0,0,0,0,0,0,0,0,0,0,0,0,0,0,0,0,0],"id":21,"left_children":[1,3,5,7,9,-1,11,13,15,-1,-1,-1,-1,-1,-1,-1,-1],"loss_changes":[4.61829E2,3.644933E2,1.1529236E2,8.543996E1,2.932837E1,0E0,1.9513672E1,4.66728E1,1.8583134E2,0E0,0E0,0E0,0E0,0E0,0E0,0E0,0E0],"parents":[2147483647,0,0,1,1,2,2,3,3,4,4,6,6,7,7,8,8],"right_children":[2,4,6,8,10,-1,12,14,16,-1,-1,-1,-1,-1,-1,-1,-1],"split_conditions":[1E0,1E0,2.4E0,5.2E0,1.02E1,2.5087798E-1,3.7E1,3.3E1,3E1,6.912951E-1,6.2338253E-3,1.1700373E0,2.4359366E-1,-9.8832324E-2,-3.3520913E-1,2.227216E-1,-6.734936E-2],"split_indices":[7,8,4,4,4,0,0,0,0,0,0,0,0,0,0,0,0],"split_type":[0,0,0,0,0,0,0,0,0,0,0,0,0,0,0,0,0],"sum_hessian":[2.63E2,2.52E2,1.1E1,2.41E2,1.1E1,5E0,6E0,7E1,1.71E2,1E1,1E0,5E0,1E0,5.5E1,1.5E1,4.1E1,1.3E2],"tree_param":{"num_deleted":"0","num_feature":"10","num_nodes":"17","size_leaf_vector":"1"}},{"base_weights":[2.4902754E-1,-1.8674624E-1,4.113349E0,-3.2525274E-1,3.4043934E0,3.0809362E0,1.1135386E0,-4.2740723E-1,3.0193422E0,2.2579025E-1,5.8050084E-1,1.9446771E0,6.675133E-1,-1.4217108E-1,-1.2911381E-2,4.6906385E-1,6.364273E-2,3.756188E-1,8.587017E-3],"categories":[],"categories_nodes":[],"categories_segments":[],"categories_sizes":[],"default_left":[0,0,0,0,0,0,0,0,0,0,0,0,0,0,0,0,0,0,0],"id":22,"left_children":[1,3,5,7,9,11,-1,13,15,-1,-1,17,-1,-1,-1,-1,-1,-1,-1],"loss_changes":[4.4870416E2,1.2048239E2,1.1541742E2,8.055685E1,1.0539032E1,5.6858337E1,0E0,5.46121E1,1.3424984E1,0E0,0E0,3.974578E1,0E0,0E0,0E0,0E0,0E0,0E0,0E0],"parents":[2147483647,0,0,1,1,2,2,3,3,4,4,5,5,7,7,8,8,11,11],"right_children":[2,4,6,8,10,12,-1,14,16,-1,-1,18,-1,-1,-1,-1,-1,-1,-1],"split_conditions":[1.58E1,1E0,1E0,1E0,2.115E3,1E0,1.1135386E0,5.2E0,1.31E1,2.2579025E-1,5.8050084E-1,2.8E1,6.675133E-1,-1.4217108E-1,-1.2911381E-2,4.6906385E-1,6.364273E-2,3.756188E-1,8.587017E-3],"split_indices":[5,7,7,8,3,8,0,4,5,0,0,0,0,0,0,0,0,0,0],"split_type":[0,0,0,0,0,0,0,0,0,0,0,0,0,0,0,0,0,0,0],"sum_hessian":[2.65E2,2.39E2,2.6E1,2.31E2,8E0,2.3E1,3E0,2.25E2,6E0,5E0,3E0,1.7E1,6E0,6.6E1,1.59E2,4E0,2E0,1E1,7E0],"tree_param":{"num_deleted":"0","num_feature":"10","num_nodes":"19","size_leaf_vector":"1"}},{"base_weights":[1.3805674E-1,-2.1960981E-1,3.4893098E0,-3.5079065E-1,2.8851008E0,2.4758575E0,1.0133201E0,-4.435269E-1,2.733122E0,1.9272831E-1,5.282557E-1,1.5212235E0,4.9271164E0,-1.21788666E-1,-2.0357417E-2,4.240338E-1,5.8551177E-2,3.226111E-1,6.636861E-3,6.4103943E-1,1.7116332E-1],"categories":[],"categories_nodes":[],"categories_segments":[],"categories_sizes":[],"default_left":[0,0,0,0,0,0,0,0,0,0,0,0,0,0,0,0,0,0,0,0,0],"id":23,"left_children":[1,3,5,7,9,11,-1,13,15,-1,-1,17,19,-1,-1,-1,-1,-1,-1,-1,-1],"loss_changes":[3.2319803E2,1.0038804E2,1.0965677E2,6.8419975E1,1.2333168E1,4.632602E1,0E0,3.5664085E1,1.0856701E1,0E0,0E0,3.0649689E1,1.0947266E0,0E0,0E0,0E0,0E0,0E0,0E0,0E0,0E0],"parents":[2147483647,0,0,1,1,2,2,3,3,4,4,5,5,7,7,8,8,11,11,12,12],"right_children":[2,4,6,8,10,12,-1,14,16,-1,-1,18,20,-1,-1,-1,-1,-1,-1,-1,-1],"split_conditions":[1.58E1,1E0,1E0,1E0,2.115E3,1E0,1.0133201E0,5.1E0,1.31E1,1.9272831E-1,5.282557E-1,2.8E1,2.95E1,-1.21788666E-1,-2.0357417E-2,4.240338E-1,5.8551177E-2,3.226111E-1,6.636861E-3,6.4103943E-1,1.7116332E-1],"split_indices":[5,7,7,8,3,8,0,4,5,0,0,0,1,0,0,0,0,0,0,0,0],"split_type":[0,0,0,0,0,0,0,0,0,0,0,0,0,0,0,0,0,0,0,0,0],"sum_hessian":[2.68E2,2.43E2,2.5E1,2.34E2,9E0,2.2E1,3E0,2.28E2,6E0,6E0,3E0,1.7E1,5E0,7.3E1,1.55E2,4E0,2E0,9E0,8E0,4E0,1E0],"tree_param":{"num_deleted":"0","num_feature":"10","num_nodes":"21","size_leaf_vector":"1"}},{"base_weights":[1.7656364E-1,-1.5025792E-1,3.0993137E0,5.186453E-1,-6.330797E-1,2.2060041E0,7.6843433E0,-4.078819E-1,1.7994124E0,-2.5588712E-1,-4.7707853E-1,-5.796524E-1,2.792118E0,1.0481354E0,2.7203932E-1,-6.630492E-2,1.552652E-1,1.8748833E-1,5.3264856E-1,5.112854E-3,-8.959122E-2,1.8819992E-1,-1.8104781E-1,3.6979595E-1,1.4918671E-2],"categories":[],"categories_nodes":[],"categories_segments":[],"categories_sizes":[],"default_left":[0,0,0,0,0,0,0,0,0,0,0,0,0,0,0,0,0,0,0,0,0,0,0,0,0],"id":24,"left_children":[1,3,5,7,9,11,13,15,17,-1,19,21,23,-1,-1,-1,-1,-1,-1,-1,-1,-1,-1,-1,-1],"loss_changes":[2.5646405E2,7.848491E1,9.363629E1,1.2177383E2,3.1961815E1,4.080355E1,2.9544525E0,1.54854145E1,1.9963364E1,0E0,1.8099949E1,1.2344438E1,1.5064224E1,0E0,0E0,0E0,0E0,0E0,0E0,0E0,0E0,0E0,0E0,0E0,0E0],"parents":[2147483647,0,0,1,1,2,2,3,3,4,4,5,5,6,6,7,7,8,8,10,10,11,11,12,12],"right_children":[2,4,6,8,10,12,14,16,18,-1,20,22,24,-1,-1,-1,-1,-1,-1,-1,-1,-1,-1,-1,-1],"split_conditions":[1.58E1,3E1,1E0,5.1E0,5E0,4.7E0,1.8E1,1E0,1E0,-2.5588712E-1,-1.58E1,2.4E1,2.33E1,1.0481354E0,2.7203932E-1,-6.630492E-2,1.552652E-1,1.8748833E-1,5.3264856E-1,5.112854E-3,-8.959122E-2,1.8819992E-1,-1.8104781E-1,3.6979595E-1,1.4918671E-2],"split_indices":[5,0,7,4,4,4,0,7,7,0,2,0,5,0,0,0,0,0,0,0,0,0,0,0,0],"split_type":[0,0,0,0,0,0,0,0,0,0,0,0,0,0,0,0,0,0,0,0,0,0,0,0,0],"sum_hessian":[2.67E2,2.41E2,2.6E1,1.01E2,1.4E2,2.3E1,3E0,5.9E1,4.2E1,1.2E1,1.28E2,4E0,1.9E1,2E0,1E0,5.5E1,4E0,4E1,2E0,4.4E1,8.4E1,1E0,3E0,1.7E1,2E0],"tree_param":{"num_deleted":"0","num_feature":"10","num_nodes":"25","size_leaf_vector":"1"}},{"base_weights":[1.37355E-1,-1.6805126E-1,2.8483837E0,3.9806756E-1,-5.97437E-1,5.290709E0,1.7823368E0,-3.0118194E-1,1.4220028E0,-2.335829E-1,-4.3467343E-1,1.5813398E0,8.6400753E-1,9.2942405E-1,4.0264648E-1,-5.22607E-2,5.7738006E-2,1.792343E-1,-9.94503E-2,4.408108E-3,-8.082988E-2,2.503871E-1,3.9408873E-3,-1.6475338E-1,1.943314E-1],"categories":[],"categories_nodes":[],"categories_segments":[],"categories_sizes":[],"default_left":[0,0,0,0,0,0,0,0,0,0,0,0,0,0,0,0,0,0,0,0,0,0,0,0,0],"id":25,"left_children":[1,3,5,7,9,11,13,15,17,-1,19,21,-1,23,-1,-1,-1,-1,-1,-1,-1,-1,-1,-1,-1],"loss_changes":[2.2899706E2,6.076558E1,6.3471924E1,7.775479E1,3.0334587E1,4.5274246E1,2.5056595E1,7.0401263E0,8.330254E0,0E0,1.4440554E1,3.0608034E0,0E0,2.6053051E1,0E0,0E0,0E0,0E0,0E0,0E0,0E0,0E0,0E0,0E0,0E0],"parents":[2147483647,0,0,1,1,2,2,3,3,4,4,5,5,6,6,7,7,8,8,10,10,11,11,13,13],"right_children":[2,4,6,8,10,12,14,16,18,-1,20,22,-1,24,-1,-1,-1,-1,-1,-1,-1,-1,-1,-1,-1],"split_conditions":[1.58E1,3E1,1.8E1,5.1E0,5E0,9.1E0,6.653592E6,2.58E1,3.03E1,-2.335829E-1,-1.58E1,1.3E1,8.6400753E-1,4.7E0,4.0264648E-1,-5.22607E-2,5.7738006E-2,1.792343E-1,-9.94503E-2,4.408108E-3,-8.082988E-2,2.503871E-1,3.9408873E-3,-1.6475338E-1,1.943314E-1],"split_indices":[5,0,0,4,4,2,6,2,1,0,2,0,0,4,0,0,0,0,0,0,0,0,0,0,0],"split_type":[0,0,0,0,0,0,0,0,0,0,0,0,0,0,0,0,0,0,0,0,0,0,0,0,0],"sum_hessian":[2.75E2,2.48E2,2.7E1,1.07E2,1.41E2,7E0,2E1,6.4E1,4.3E1,1.4E1,1.27E2,3E0,4E0,1.4E1,6E0,5.5E1,9E0,4.2E1,1E0,4.3E1,8.4E1,2E0,1E0,3E0,1.1E1],"tree_param":{"num_deleted":"0","num_feature":"10","num_nodes":"25","size_leaf_vector":"1"}},{"base_weights":[1.5496086E-1,-7.887478E-2,3.2605112E0,-1.7162633E-1,2.4547925E0,2.2319562E0,6.5596027E0,-2.6328796E-1,2.5767603E0,1.2204533E0,4.4311237E-1,1.3642734E0,4.6416044E-1,8.951642E-1,2.3155837E-1,1.4938851E-2,-6.315896E-2,3.508833E-1,8.7533565E-3,4.0571824E-2,1.5951653E-1,2.4980988E-1,3.5980757E-2],"categories":[],"categories_nodes":[],"categories_segments":[],"categories_sizes":[],"default_left":[0,0,0,0,0,0,0,0,0,0,0,0,0,0,0,0,0,0,0,0,0,0,0],"id":26,"left_children":[1,3,5,7,9,11,13,15,17,19,-1,21,-1,-1,-1,-1,-1,-1,-1,-1,-1,-1,-1],"loss_changes":[1.970542E2,5.9876705E1,4.9831894E1,6.2399223E1,9.244255E0,1.7436104E1,2.2750092E0,2.434151E1,6.742653E0,1.2683678E-1,0E0,8.540274E0,0E0,0E0,0E0,0E0,0E0,0E0,0E0,0E0,0E0,0E0,0E0],"parents":[2147483647,0,0,1,1,2,2,3,3,4,4,5,5,6,6,7,7,8,8,9,9,11,11],"right_children":[2,4,6,8,10,12,14,16,18,20,-1,22,-1,-1,-1,-1,-1,-1,-1,-1,-1,-1,-1],"split_conditions":[1.8E1,1E0,1E0,1E0,2.5E0,1E0,1.8E1,3E1,3E1,1.33E1,4.4311237E-1,2.4E1,4.6416044E-1,8.951642E-1,2.3155837E-1,1.4938851E-2,-6.315896E-2,3.508833E-1,8.7533565E-3,4.0571824E-2,1.5951653E-1,2.4980988E-1,3.5980757E-2],"split_indices":[5,7,7,8,4,8,0,0,0,1,0,0,0,0,0,0,0,0,0,0,0,0,0],"split_type":[0,0,0,0,0,0,0,0,0,0,0,0,0,0,0,0,0,0,0,0,0,0,0],"sum_hessian":[2.7E2,2.52E2,1.8E1,2.44E2,8E0,1.5E1,3E0,2.37E2,7E0,5E0,3E0,1.1E1,4E0,2E0,1E0,9.6E1,1.41E2,6E0,1E0,1E0,4E0,6E0,5E0],"tree_param":{"num_deleted":"0","num_feature":"10","num_nodes":"23","size_leaf_vector":"1"}},{"base_weights":[1.3825636E-1,-2.3063546E-2,3.608556E0,-1.765593E-1,2.89513E0,1.463459E0,7.5828004E-1,2.8692788E-1,-4.833289E-1,2.998618E0,9.919647E-2,3.8137436E-2,1.8980654E-1,1.1614055E-1,-3.581041E-2,-6.0585856E-2,1.6239326E-1,2.3815292E-1,4.4182318E-1],"categories":[],"categories_nodes":[],"categories_segments":[],"categories_sizes":[],"default_left":[0,0,0,0,0,0,0,0,0,0,0,0,0,0,0,0,0,0,0],"id":27,"left_children":[1,3,5,7,9,11,-1,13,15,17,-1,-1,-1,-1,-1,-1,-1,-1,-1],"loss_changes":[1.512369E2,1.165251E2,6.05224E1,3.5258076E1,3.0406952E-1,5.8120346E-1,0E0,3.9747185E1,6.5813866E0,1.0067215E0,0E0,0E0,0E0,0E0,0E0,0E0,0E0,0E0,0E0],"parents":[2147483647,0,0,1,1,2,2,3,3,4,4,5,5,7,7,8,8,9,9],"right_children":[2,4,6,8,10,12,-1,14,16,18,-1,-1,-1,-1,-1,-1,-1,-1,-1],"split_conditions":[1E0,1E0,2.115E3,3E1,2.95E1,1.33E1,7.5828004E-1,1.04E1,3.26E1,1.58E1,9.919647E-2,3.8137436E-2,1.8980654E-1,1.1614055E-1,-3.581041E-2,-6.0585856E-2,1.6239326E-1,2.3815292E-1,4.4182318E-1],"split_indices":[7,8,3,0,1,1,0,2,1,5,0,0,0,0,0,0,0,0,0],"split_type":[0,0,0,0,0,0,0,0,0,0,0,0,0,0,0,0,0,0,0],"sum_hessian":[2.69E2,2.58E2,1.1E1,2.46E2,1.2E1,7E0,4E0,9.8E1,1.48E2,1.1E1,1E0,1E0,6E0,4.5E1,5.3E1,1.47E2,1E0,6E0,5E0],"tree_param":{"num_deleted":"0","num_feature":"10","num_nodes":"19","size_leaf_vector":"1"}},{"base_weights":[9.300122E-2,-1.1491243E-1,2.1767342E0,-1.9463637E-1,1.8258984E0,7.089898E-1,3.2793198E0,-2.5239554E-1,1.7804778E0,3.7958646E-1,1.0961652E0,-5.2708626E-1,1.1795802E0,2.1007326E0,4.500647E0,3.9130803E-3,-5.295482E-2,2.9157385E-1,1.2577361E-2,3.5849303E-2,1.4008857E-1,-9.809936E-2,2.0648345E-2,1.4435234E-2,2.0270096E-1,2.748952E-1,3.4814756E-2,5.870333E-1,1.5264976E-1],"categories":[],"categories_nodes":[],"categories_segments":[],"categories_sizes":[],"default_left":[0,0,0,0,0,0,0,0,0,0,0,0,0,0,0,0,0,0,0,0,0,0,0,0,0,0,0,0,0],"id":28,"left_children":[1,3,5,7,9,11,13,15,17,-1,19,21,23,25,27,-1,-1,-1,-1,-1,-1,-1,-1,-1,-1,-1,-1,-1,-1],"loss_changes":[1.1939017E2,3.9192387E1,3.813286E1,2.8056976E1,6.291477E0,7.6019673E0,1.069751E1,1.2719646E1,7.361454E0,0E0,1.0570717E-1,9.528289E-1,4.6550617E0,2.4325218E0,1.3570251E0,0E0,0E0,0E0,0E0,0E0,0E0,0E0,0E0,0E0,0E0,0E0,0E0,0E0,0E0],"parents":[2147483647,0,0,1,1,2,2,3,3,4,4,5,5,6,6,7,7,8,8,10,10,11,11,12,12,13,13,14,14],"right_children":[2,4,6,8,10,12,14,16,18,-1,20,22,24,26,28,-1,-1,-1,-1,-1,-1,-1,-1,-1,-1,-1,-1,-1,-1],"split_conditions":[1.58E1,1E0,4.911347E6,1E0,8.3E0,1.83E1,2.06E1,3E1,1.31E1,3.7958646E-1,1.33E1,1.71E1,3.379E3,1.6793E4,3.39E1,3.9130803E-3,-5.295482E-2,2.9157385E-1,1.2577361E-2,3.5849303E-2,1.4008857E-1,-9.809936E-2,2.0648345E-2,1.4435234E-2,2.0270096E-1,2.748952E-1,3.4814756E-2,5.870333E-1,1.5264976E-1],"split_indices":[5,7,6,8,1,5,1,0,5,0,1,1,3,3,1,0,0,0,0,0,0,0,0,0,0,0,0,0,0],"split_type":[0,0,0,0,0,0,0,0,0,0,0,0,0,0,0,0,0,0,0,0,0,0,0,0,0,0,0,0,0],"sum_hessian":[2.74E2,2.5E2,2.4E1,2.41E2,9E0,1.1E1,1.3E1,2.35E2,6E0,2E0,7E0,3E0,8E0,8E0,5E0,9.4E1,1.41E2,4E0,2E0,1E0,6E0,2E0,1E0,3E0,5E0,7E0,1E0,4E0,1E0],"tree_param":{"num_deleted":"0","num_feature":"10","num_nodes":"29","size_leaf_vector":"1"}},{"base_weights":[1.07358895E-1,-7.451131E-2,1.7143751E0,-1.4687131E-1,1.662344E0,1.1244147E0,3.6901608E0,-6.886513E-1,8.160945E-2,3.4921965E-1,9.866185E-1,1.7661793E0,2.6374608E-1,2.0779368E-1,6.085803E-1,-5.35586E-2,-1.8763126E-1,1.2843253E-1,-2.921193E-2,3.3698272E-2,1.256796E-1,2.3299353E-1,-2.0341415E-2,1.6135803E-1,-6.5520756E-2],"categories":[],"categories_nodes":[],"categories_segments":[],"categories_sizes":[],"default_left":[0,0,0,0,0,0,0,0,0,0,0,0,0,0,0,0,0,0,0,0,0,0,0,0,0],"id":29,"left_children":[1,3,5,7,9,11,13,15,17,-1,19,21,23,-1,-1,-1,-1,-1,-1,-1,-1,-1,-1,-1,-1],"loss_changes":[8.050154E1,3.1412506E1,2.8488518E1,2.9641129E1,5.5606136E0,1.2238152E1,7.450653E0,1.4355873E1,5.4569836E1,0E0,4.869175E-2,4.7437325E0,1.0362102E1,0E0,0E0,0E0,0E0,0E0,0E0,0E0,0E0,0E0,0E0,0E0,0E0],"parents":[2147483647,0,0,1,1,2,2,3,3,4,4,5,5,6,6,7,7,8,8,10,10,11,11,12,12],"right_children":[2,4,6,8,10,12,14,16,18,-1,20,22,24,-1,-1,-1,-1,-1,-1,-1,-1,-1,-1,-1,-1],"split_conditions":[1.58E1,1E0,2.93E1,5.1E0,8.3E0,2.8E1,2.06E1,2.6E1,3E1,3.4921965E-1,1.33E1,1.6793E4,1.51E1,2.0779368E-1,6.085803E-1,-5.35586E-2,-1.8763126E-1,1.2843253E-1,-2.921193E-2,3.3698272E-2,1.256796E-1,2.3299353E-1,-2.0341415E-2,1.6135803E-1,-6.5520756E-2],"split_indices":[5,7,1,4,1,0,5,0,0,0,1,3,1,0,0,0,0,0,0,0,0,0,0,0,0],"split_type":[0,0,0,0,0,0,0,0,0,0,0,0,0,0,0,0,0,0,0,0,0,0,0,0,0],"sum_hessian":[2.74E2,2.47E2,2.7E1,2.38E2,9E0,2.2E1,5E0,7E1,1.68E2,2E0,7E0,1.2E1,1E1,3E0,2E0,5.6E1,1.4E1,4.1E1,1.27E2,1E0,6E0,1.1E1,1E0,4E0,6E0],"tree_param":{"num_deleted":"0","num_feature":"10","num_nodes":"25","size_leaf_vector":"1"}},{"base_weights":[6.14479E-2,-6.990344E-2,2.9460566E0,-1.4090161E-1,1.7475402E0,1.0332862E-1,4.312321E0,-6.1640173E-1,5.690728E-2,1.9510871E0,-5.062866E-3,6.185702E-1,1.7649963E-1,-1.8201469E-1,-4.3923E-2,1.0484015E-1,-2.171929E-2,2.4624297E-1,6.861511E-2],"categories":[],"categories_nodes":[],"categories_segments":[],"categories_sizes":[],"default_left":[0,0,0,0,0,0,0,0,0,0,0,0,0,0,0,0,0,0,0],"id":30,"left_children":[1,3,5,7,9,-1,11,13,15,17,-1,-1,-1,-1,-1,-1,-1,-1,-1],"loss_changes":[1.0440267E2,3.431152E1,3.0470474E1,2.4019907E1,3.725254E0,0E0,9.174545E0,1.6352514E1,3.5327965E1,7.967377E-2,0E0,0E0,0E0,0E0,0E0,0E0,0E0,0E0,0E0],"parents":[2147483647,0,0,1,1,2,2,3,3,4,4,6,6,7,7,8,8,9,9],"right_children":[2,4,6,8,10,-1,12,14,16,18,-1,-1,-1,-1,-1,-1,-1,-1,-1],"split_conditions":[1E0,1E0,2.4E0,5.1E0,3.5E1,1.0332862E-1,2.2E1,2.4E0,3E1,2.72E1,-5.062866E-3,6.185702E-1,1.7649963E-1,-1.8201469E-1,-4.3923E-2,1.0484015E-1,-2.171929E-2,2.4624297E-1,6.861511E-2],"split_indices":[7,8,4,4,0,0,0,2,0,1,0,0,0,0,0,0,0,0,0],"split_type":[0,0,0,0,0,0,0,0,0,0,0,0,0,0,0,0,0,0,0],"sum_hessian":[2.74E2,2.63E2,1.1E1,2.54E2,9E0,5E0,6E0,7.4E1,1.8E2,8E0,1E0,4E0,2E0,1.5E1,5.9E1,4E1,1.4E2,7E0,1E0],"tree_param":{"num_deleted":"0","num_feature":"10","num_nodes":"19","size_leaf_vector":"1"}},{"base_weights":[1.17842264E-1,-7.587244E-2,1.7236148E0,-1.2519972E-1,1.3764343E0,1.1790411E0,4.8324394E0,-5.365398E-1,3.9591856E-2,2.7179658E-1,7.0276004E-1,-5.354147E-1,1.4259448E0,6.6018283E-1,1.6951126E-1,-4.3421652E-2,-1.4812222E-1,8.7749936E-2,-2.2734847E-2,2.1086425E-2,9.276287E-2,6.2263183E-2,-2.218943E-1,1.8879843E-1,-9.719849E-3],"categories":[],"categories_nodes":[],"categories_segments":[],"categories_sizes":[],"default_left":[0,0,0,0,0,0,0,0,0,0,0,0,0,0,0,0,0,0,0,0,0,0,0,0,0],"id":31,"left_children":[1,3,5,7,9,11,13,15,17,-1,19,21,23,-1,-1,-1,-1,-1,-1,-1,-1,-1,-1,-1,-1],"loss_changes":[8.380639E1,1.7437166E1,4.3398872E1,1.5883019E1,3.1969442E0,1.1769409E1,1.3812332E0,7.720833E0,2.6753677E1,0E0,8.635545E-2,6.4994545E0,5.2354317E0,0E0,0E0,0E0,0E0,0E0,0E0,0E0,0E0,0E0,0E0,0E0,0E0],"parents":[2147483647,0,0,1,1,2,2,3,3,4,4,5,5,6,6,7,7,8,8,10,10,11,11,12,12],"right_children":[2,4,6,8,10,12,14,16,18,-1,20,22,24,-1,-1,-1,-1,-1,-1,-1,-1,-1,-1,-1,-1],"split_conditions":[1.58E1,1E0,1E0,5.1E0,8.3E0,4.7E0,1.8E1,2.6E1,3E1,2.7179658E-1,1.33E1,1.53E1,2.33E1,6.6018283E-1,1.6951126E-1,-4.3421652E-2,-1.4812222E-1,8.7749936E-2,-2.2734847E-2,2.1086425E-2,9.276287E-2,6.2263183E-2,-2.218943E-1,1.8879843E-1,-9.719849E-3],"split_indices":[5,7,7,4,1,4,0,0,0,0,1,1,5,0,0,0,0,0,0,0,0,0,0,0,0],"split_type":[0,0,0,0,0,0,0,0,0,0,0,0,0,0,0,0,0,0,0,0,0,0,0,0,0],"sum_hessian":[2.68E2,2.4E2,2.8E1,2.33E2,7E0,2.5E1,3E0,6.6E1,1.67E2,2E0,5E0,3E0,2.2E1,2E0,1E0,5.4E1,1.2E1,4.1E1,1.26E2,1E0,4E0,2E0,1E0,2E1,2E0],"tree_param":{"num_deleted":"0","num_feature":"10","num_nodes":"25","size_leaf_vector":"1"}},{"base_weights":[1.00413114E-1,-8.416432E-3,2.4137423E0,-1.04065895E-1,1.9451281E0,1.2361132E0,4.4599724E0,1.4517415E-1,-2.6840007E-1,2.041397E0,5.3170163E-2,2.500528E-1,6.9624275E-1,6.073684E-1,1.5934066E-1,5.9824876E-2,-2.4483422E-2,-1.7212323E-3,-5.0219312E-2,1.576185E-1,3.1826293E-1,1.9821167E-2,9.086692E-2],"categories":[],"categories_nodes":[],"categories_segments":[],"categories_sizes":[],"default_left":[0,0,0,0,0,0,0,0,0,0,0,0,0,0,0,0,0,0,0,0,0,0,0],"id":32,"left_children":[1,3,5,7,9,11,13,15,17,19,-1,-1,21,-1,-1,-1,-1,-1,-1,-1,-1,-1,-1],"loss_changes":[6.723985E1,4.8037426E1,2.3403374E1,1.0073835E1,8.306885E-1,2.6678276E0,8.1433105E-1,1.2194576E1,5.637594E0,1.4070091E0,0E0,0E0,1.0162139E-1,0E0,0E0,0E0,0E0,0E0,0E0,0E0,0E0,0E0,0E0],"parents":[2147483647,0,0,1,1,2,2,3,3,4,4,5,5,6,6,7,7,8,8,9,9,12,12],"right_children":[2,4,6,8,10,12,14,16,18,20,-1,-1,22,-1,-1,-1,-1,-1,-1,-1,-1,-1,-1],"split_conditions":[1E0,1E0,1.21E1,3E1,2.95E1,8.3E0,1.8E1,1.11E1,-1.49E1,1.58E1,5.3170163E-2,2.500528E-1,1.33E1,6.073684E-1,1.5934066E-1,5.9824876E-2,-2.4483422E-2,-1.7212323E-3,-5.0219312E-2,1.576185E-1,3.1826293E-1,1.9821167E-2,9.086692E-2],"split_indices":[7,8,5,0,1,1,0,2,2,5,0,0,1,0,0,0,0,0,0,0,0,0,0],"split_type":[0,0,0,0,0,0,0,0,0,0,0,0,0,0,0,0,0,0,0,0,0,0,0],"sum_hessian":[2.66E2,2.55E2,1.1E1,2.44E2,1.1E1,8E0,3E0,9.7E1,1.47E2,1E1,1E0,2E0,6E0,2E0,1E0,4.8E1,4.9E1,5.5E1,9.2E1,6E0,4E0,1E0,5E0],"tree_param":{"num_deleted":"0","num_feature":"10","num_nodes":"23","size_leaf_vector":"1"}},{"base_weights":[8.8017546E-2,-7.7147484E-2,1.62829E0,-1.2645687E-1,1.0844071E0,1.1247708E0,4.116453E0,-4.7308984E-1,2.7432881E-2,5.7745415E-1,1.7004728E0,-5.0091934E-1,1.3936703E0,5.58779E-1,1.4978027E-1,-1.2583433E-1,-3.6388543E-2,7.553327E-2,-1.778066E-2,7.463295E-2,1.8631896E-2,2.3004851E-1,6.3040696E-2,-2.0556746E-1,5.689789E-2,1.8737711E-1,-9.326477E-3],"categories":[],"categories_nodes":[],"categories_segments":[],"categories_sizes":[],"default_left":[0,0,0,0,0,0,0,0,0,0,0,0,0,0,0,0,0,0,0,0,0,0,0,0,0,0,0],"id":33,"left_children":[1,3,5,7,9,11,13,15,17,19,21,23,25,-1,-1,-1,-1,-1,-1,-1,-1,-1,-1,-1,-1,-1,-1],"loss_changes":[6.8304596E1,1.4055088E1,2.7943726E1,1.2495302E1,2.1412182E0,1.0752502E1,3.838501E-1,6.7203674E0,1.7325005E1,3.4907103E-2,1.1014938E-2,5.539936E0,5.059513E0,0E0,0E0,0E0,0E0,0E0,0E0,0E0,0E0,0E0,0E0,0E0,0E0,0E0,0E0],"parents":[2147483647,0,0,1,1,2,2,3,3,4,4,5,5,6,6,7,7,8,8,9,9,10,10,11,11,12,12],"right_children":[2,4,6,8,10,12,14,16,18,20,22,24,26,-1,-1,-1,-1,-1,-1,-1,-1,-1,-1,-1,-1,-1,-1],"split_conditions":[1.58E1,1E0,1E0,5.1E0,2.115E3,4.7E0,1.8E1,-1.32E1,3E1,2.4E0,2.2E1,2.4E0,2.33E1,5.58779E-1,1.4978027E-1,-1.2583433E-1,-3.6388543E-2,7.553327E-2,-1.778066E-2,7.463295E-2,1.8631896E-2,2.3004851E-1,6.3040696E-2,-2.0556746E-1,5.689789E-2,1.8737711E-1,-9.326477E-3],"split_indices":[5,7,7,4,3,4,0,2,0,4,0,2,5,0,0,0,0,0,0,0,0,0,0,0,0,0,0],"split_type":[0,0,0,0,0,0,0,0,0,0,0,0,0,0,0,0,0,0,0,0,0,0,0,0,0,0,0],"sum_hessian":[2.67E2,2.42E2,2.5E1,2.33E2,9E0,2.2E1,3E0,7.1E1,1.62E2,6E0,3E0,3E0,1.9E1,2E0,1E0,1.5E1,5.6E1,3.6E1,1.26E2,5E0,1E0,2E0,1E0,1E0,2E0,1.7E1,2E0],"tree_param":{"num_deleted":"0","num_feature":"10","num_nodes":"27","size_leaf_vector":"1"}},{"base_weights":[9.202283E-2,-5.9392277E-2,1.544398E0,-9.31839E-2,1.1269716E0,1.0850377E0,3.7996197E0,-1.2678954E-1,1.0627202E0,2.0107031E-1,-1.9565124E-2,1.3398807E-1,1.3417745E0,5.140768E-1,1.4079346E-1,-4.9535073E-2,-1.4779194E-3,2.1164459E-1,5.1550232E-2,1.5238997E-1,-4.166171E-2,1.6872104E-1,1.498764E-2],"categories":[],"categories_nodes":[],"categories_segments":[],"categories_sizes":[],"default_left":[0,0,0,0,0,0,0,0,0,0,0,0,0,0,0,0,0,0,0,0,0,0,0],"id":34,"left_children":[1,3,5,7,9,11,13,15,17,-1,-1,19,21,-1,-1,-1,-1,-1,-1,-1,-1,-1,-1],"loss_changes":[6.0567394E1,1.0127304E1,2.281221E1,9.6129E0,5.227235E0,5.4361095E0,6.201935E-2,7.7869763E0,2.3490634E0,0E0,0E0,3.7203321E0,1.231369E0,0E0,0E0,0E0,0E0,0E0,0E0,0E0,0E0,0E0,0E0],"parents":[2147483647,0,0,1,1,2,2,3,3,4,4,5,5,6,6,7,7,8,8,11,11,12,12],"right_children":[2,4,6,8,10,12,14,16,18,-1,-1,20,22,-1,-1,-1,-1,-1,-1,-1,-1,-1,-1],"split_conditions":[1.58E1,1E0,1E0,1E0,1.31E1,6.99E2,1.8E1,5.1E0,8.3E0,2.0107031E-1,-1.9565124E-2,1.3E1,1.44E1,5.140768E-1,1.4079346E-1,-4.9535073E-2,-1.4779194E-3,2.1164459E-1,5.1550232E-2,1.5238997E-1,-4.166171E-2,1.6872104E-1,1.498764E-2],"split_indices":[5,8,7,7,5,3,0,4,1,0,0,0,4,0,0,0,0,0,0,0,0,0,0],"split_type":[0,0,0,0,0,0,0,0,0,0,0,0,0,0,0,0,0,0,0,0,0,0,0],"sum_hessian":[2.74E2,2.49E2,2.5E1,2.43E2,6E0,2.2E1,3E0,2.37E2,6E0,4E0,2E0,5E0,1.7E1,2E0,1E0,6.7E1,1.7E2,2E0,4E0,1E0,4E0,1.6E1,1E0],"tree_param":{"num_deleted":"0","num_feature":"10","num_nodes":"23","size_leaf_vector":"1"}},{"base_weights":[7.283673E-2,-1.53074255E-2,1.7826546E0,-8.3189465E-2,1.3549227E0,4.7729492E-1,2.8333495E0,-3.8440263E-1,2.9597314E-2,1.4941753E0,-1.061142E-2,1.4420928E-2,6.2014308E-2,3.779472E-1,5.6165084E-2,-2.2149343E-2,-1.19678274E-1,4.91892E-2,-1.1011026E-2,9.2872314E-2,2.3584625E-1],"categories":[],"categories_nodes":[],"categories_segments":[],"categories_sizes":[],"default_left":[0,0,0,0,0,0,0,0,0,0,0,0,0,0,0,0,0,0,0,0,0],"id":35,"left_children":[1,3,5,7,9,11,13,15,17,19,-1,-1,-1,-1,-1,-1,-1,-1,-1,-1,-1],"loss_changes":[3.9965557E1,2.3645258E1,1.6477608E1,8.232811E0,2.544014E0,3.6616802E-2,3.7614212E0,7.8993235E0,8.206724E0,2.212141E0,0E0,0E0,0E0,0E0,0E0,0E0,0E0,0E0,0E0,0E0,0E0],"parents":[2147483647,0,0,1,1,2,2,3,3,4,4,5,5,6,6,7,7,8,8,9,9],"right_children":[2,4,6,8,10,12,14,16,18,20,-1,-1,-1,-1,-1,-1,-1,-1,-1,-1,-1],"split_conditions":[1E0,1E0,2.5E0,5.1E0,1.02E1,1.33E1,3.7E1,2.6E1,3E1,7.5E0,-1.061142E-2,1.4420928E-2,6.2014308E-2,3.779472E-1,5.6165084E-2,-2.2149343E-2,-1.19678274E-1,4.91892E-2,-1.1011026E-2,9.2872314E-2,2.3584625E-1],"split_indices":[7,8,4,4,4,1,0,0,0,4,0,0,0,0,0,0,0,0,0,0,0],"split_type":[0,0,0,0,0,0,0,0,0,0,0,0,0,0,0,0,0,0,0,0,0],"sum_hessian":[2.64E2,2.52E2,1.2E1,2.41E2,1.1E1,6E0,6E0,6.5E1,1.76E2,1E1,1E0,1E0,5E0,5E0,1E0,5E1,1.5E1,4.2E1,1.34E2,5E0,5E0],"tree_param":{"num_deleted":"0","num_feature":"10","num_nodes":"21","size_leaf_vector":"1"}},{"base_weights":[7.8325674E-2,6.4393843E-4,1.6080087E0,-6.1883528E-2,1.2824033E0,8.008419E-1,3.2239237E0,-3.1911117E-1,3.8175974E-2,1.4140986E0,-9.974671E-3,1.6447723E-1,4.8706102E-1,4.4271514E-1,1.09668955E-1,-1.1540744E-1,-2.00341E-2,5.2124508E-2,-1.2381917E-2,5.344803E-2,2.0660225E-1,1.3555755E-2,6.292386E-2],"categories":[],"categories_nodes":[],"categories_segments":[],"categories_sizes":[],"default_left":[0,0,0,0,0,0,0,0,0,0,0,0,0,0,0,0,0,0,0,0,0,0,0],"id":36,"left_children":[1,3,5,7,9,11,13,15,17,19,-1,-1,21,-1,-1,-1,-1,-1,-1,-1,-1,-1,-1],"loss_changes":[3.1963814E1,2.0676666E1,1.4374218E1,6.3437476E0,2.2755413E0,1.1203423E0,9.283638E-1,6.5863204E0,1.0013809E1,2.5107098E0,0E0,0E0,5.2409172E-2,0E0,0E0,0E0,0E0,0E0,0E0,0E0,0E0,0E0,0E0],"parents":[2147483647,0,0,1,1,2,2,3,3,4,4,5,5,6,6,7,7,8,8,9,9,12,12],"right_children":[2,4,6,8,10,12,14,16,18,20,-1,-1,22,-1,-1,-1,-1,-1,-1,-1,-1,-1,-1],"split_conditions":[1E0,1E0,1.21E1,5E0,1.02E1,8.3E0,1.8E1,2.4E0,3E1,1.09E1,-9.974671E-3,1.6447723E-1,1.33E1,4.4271514E-1,1.09668955E-1,-1.1540744E-1,-2.00341E-2,5.2124508E-2,-1.2381917E-2,5.344803E-2,2.0660225E-1,1.3555755E-2,6.292386E-2],"split_indices":[7,8,5,4,4,1,0,2,0,1,0,0,1,0,0,0,0,0,0,0,0,0,0],"split_type":[0,0,0,0,0,0,0,0,0,0,0,0,0,0,0,0,0,0,0,0,0,0,0],"sum_hessian":[2.68E2,2.56E2,1.2E1,2.45E2,1.1E1,9E0,3E0,6.8E1,1.77E2,1E1,1E0,2E0,7E0,2E0,1E0,1.2E1,5.6E1,4.6E1,1.31E2,3E0,7E0,1E0,6E0],"tree_param":{"num_deleted":"0","num_feature":"10","num_nodes":"23","size_leaf_vector":"1"}},{"base_weights":[7.365007E-2,-3.1646084E-2,1.0427818E0,-6.443041E-2,7.288364E-1,6.6137993E-1,2.9751472E0,-9.0700775E-2,7.8917855E-1,3.840561E-1,1.3799915E-1,1.3243103E-1,1.1352139E0,4.0729764E-1,1.0308883E-1,-3.320217E-2,-1.006185E-3,1.463995E-1,-2.3029175E-2,1.2742309E-2,4.9520414E-2,-3.3016335E-2,7.030251E-2,6.544687E-2,2.2222659E-1],"categories":[],"categories_nodes":[],"categories_segments":[],"categories_sizes":[],"default_left":[0,0,0,0,0,0,0,0,0,0,0,0,0,0,0,0,0,0,0,0,0,0,0,0,0],"id":37,"left_children":[1,3,5,7,9,11,13,15,17,19,-1,21,23,-1,-1,-1,-1,-1,-1,-1,-1,-1,-1,-1,-1],"loss_changes":[2.707515E1,6.0306168E0,1.71945E1,5.251666E0,1.0104032E0,5.6142435E0,6.307144E-1,3.4423037E0,3.1928177E0,1.1837244E-2,0E0,2.3787944E0,4.0625315E0,0E0,0E0,0E0,0E0,0E0,0E0,0E0,0E0,0E0,0E0,0E0,0E0],"parents":[2147483647,0,0,1,1,2,2,3,3,4,4,5,5,6,6,7,7,8,8,9,9,11,11,12,12],"right_children":[2,4,6,8,10,12,14,16,18,20,-1,22,24,-1,-1,-1,-1,-1,-1,-1,-1,-1,-1,-1,-1],"split_conditions":[1.58E1,1E0,1E0,1E0,2.5E0,4.911347E6,1.8E1,5.1E0,1.31E1,1.33E1,1.3799915E-1,1.21E1,2.06E1,4.0729764E-1,1.0308883E-1,-3.320217E-2,-1.006185E-3,1.463995E-1,-2.3029175E-2,1.2742309E-2,4.9520414E-2,-3.3016335E-2,7.030251E-2,6.544687E-2,2.2222659E-1],"split_indices":[5,7,7,8,4,6,0,4,5,1,0,4,1,0,0,0,0,0,0,0,0,0,0,0,0],"split_type":[0,0,0,0,0,0,0,0,0,0,0,0,0,0,0,0,0,0,0,0,0,0,0,0,0],"sum_hessian":[2.64E2,2.39E2,2.5E1,2.3E2,9E0,2.2E1,3E0,2.24E2,6E0,6E0,3E0,1.1E1,1.1E1,2E0,1E0,6.8E1,1.56E2,4E0,2E0,1E0,5E0,6E0,5E0,7E0,4E0],"tree_param":{"num_deleted":"0","num_feature":"10","num_nodes":"25","size_leaf_vector":"1"}},{"base_weights":[5.7316598E-2,-6.97671E-3,1.3536108E0,-6.4612895E-2,1.1063817E0,6.614029E-1,2.7457275E0,-2.842242E-1,2.3590596E-2,1.2096834E0,-7.9943845E-3,1.4027892E-1,3.8838196E-1,3.7471405E-1,9.690353E-2,-1.4297528E-2,-9.735503E-2,4.0944226E-2,-1.0176871E-2,2.5039978E-2,1.6668242E-1,1.1977844E-2,4.9841568E-2],"categories":[],"categories_nodes":[],"categories_segments":[],"categories_sizes":[],"default_left":[0,0,0,0,0,0,0,0,0,0,0,0,0,0,0,0,0,0,0,0,0,0,0],"id":38,"left_children":[1,3,5,7,9,11,13,15,17,19,-1,-1,21,-1,-1,-1,-1,-1,-1,-1,-1,-1,-1],"loss_changes":[2.292878E1,1.6948124E1,1.0711212E1,4.868696E0,1.6558399E0,9.3180704E-1,4.0034103E-1,6.167867E0,6.226046E0,1.8643875E0,0E0,0E0,2.079022E-2,0E0,0E0,0E0,0E0,0E0,0E0,0E0,0E0,0E0,0E0],"parents":[2147483647,0,0,1,1,2,2,3,3,4,4,5,5,6,6,7,7,8,8,9,9,12,12],"right_children":[2,4,6,8,10,12,14,16,18,20,-1,-1,22,-1,-1,-1,-1,-1,-1,-1,-1,-1,-1],"split_conditions":[1E0,1E0,1.21E1,5.1E0,1.02E1,8.3E0,1.8E1,2.5E1,3E1,5.1E0,-7.9943845E-3,1.4027892E-1,1.33E1,3.7471405E-1,9.690353E-2,-1.4297528E-2,-9.735503E-2,4.0944226E-2,-1.0176871E-2,2.5039978E-2,1.6668242E-1,1.1977844E-2,4.9841568E-2],"split_indices":[7,8,5,4,4,1,0,0,0,4,0,0,1,0,0,0,0,0,0,0,0,0,0],"split_type":[0,0,0,0,0,0,0,0,0,0,0,0,0,0,0,0,0,0,0,0,0,0,0],"sum_hessian":[2.74E2,2.62E2,1.2E1,2.5E2,1.2E1,9E0,3E0,7.1E1,1.79E2,1.1E1,1E0,2E0,7E0,2E0,1E0,5.5E1,1.6E1,4.5E1,1.34E2,2E0,9E0,1E0,6E0],"tree_param":{"num_deleted":"0","num_feature":"10","num_nodes":"23","size_leaf_vector":"1"}},{"base_weights":[3.614601E-2,-2.384846E-2,1.3180155E0,-6.5601744E-2,1.0140178E0,6.3106835E-1,2.5341425E0,1.5791038E-1,-1.2284172E-1,1.1406026E0,-7.514648E-3,1.2905669E-1,3.5045677E-1,9.108925E-2,3.4473664E-1,-5.885688E-2,3.9361883E-2,-2.363129E-2,-2.1384319E-3,2.3036804E-2,1.6610575E-1,1.1259155E-2,4.5310896E-2],"categories":[],"categories_nodes":[],"categories_segments":[],"categories_sizes":[],"default_left":[0,0,0,0,0,0,0,0,0,0,0,0,0,0,0,0,0,0,0,0,0,0,0],"id":39,"left_children":[1,3,5,7,9,11,13,15,17,19,-1,-1,21,-1,-1,-1,-1,-1,-1,-1,-1,-1,-1],"loss_changes":[2.0641993E1,1.12034445E1,8.425762E0,3.1922677E0,1.4342871E0,7.454376E-1,2.239132E-1,5.785858E0,1.5370467E0,1.814146E0,0E0,0E0,1.3315976E-2,0E0,0E0,0E0,0E0,0E0,0E0,0E0,0E0,0E0,0E0],"parents":[2147483647,0,0,1,1,2,2,3,3,4,4,5,5,6,6,7,7,8,8,9,9,12,12],"right_children":[2,4,6,8,10,12,14,16,18,20,-1,-1,22,-1,-1,-1,-1,-1,-1,-1,-1,-1,-1],"split_conditions":[1E0,1E0,1.21E1,-1.58E1,1.02E1,8.3E0,1.51E1,5E0,6.575955E6,5.1E0,-7.514648E-3,1.2905669E-1,1.33E1,9.108925E-2,3.4473664E-1,-5.885688E-2,3.9361883E-2,-2.363129E-2,-2.1384319E-3,2.3036804E-2,1.6610575E-1,1.1259155E-2,4.5310896E-2],"split_indices":[7,8,5,2,4,1,1,4,6,4,0,0,1,0,0,0,0,0,0,0,0,0,0],"split_type":[0,0,0,0,0,0,0,0,0,0,0,0,0,0,0,0,0,0,0,0,0,0,0],"sum_hessian":[2.67E2,2.56E2,1.1E1,2.47E2,9E0,8E0,3E0,5E1,1.97E2,8E0,1E0,2E0,6E0,1E0,2E0,1E1,4E1,1.15E2,8.2E1,2E0,6E0,1E0,5E0],"tree_param":{"num_deleted":"0","num_feature":"10","num_nodes":"23","size_leaf_vector":"1"}},{"base_weights":[5.267513E-2,-3.092451E-2,7.6577985E-1,-5.5022925E-2,5.4812014E-1,4.9429247E-1,2.3390026E0,1.3488548E-1,-1.16622776E-1,1.18732296E-1,3.141117E-1,9.4783545E-2,1.0304607E0,8.562378E-2,3.171579E-1,-5.113393E-2,3.4462344E-2,-1.6762277E-2,5.7193123E-2,1.0583496E-2,4.005432E-2,6.806862E-2,-9.446174E-2,1.4691578E-1,1.2655335E-2],"categories":[],"categories_nodes":[],"categories_segments":[],"categories_sizes":[],"default_left":[0,0,0,0,0,0,0,0,0,0,0,0,0,0,0,0,0,0,0,0,0,0,0,0,0],"id":40,"left_children":[1,3,5,7,9,11,13,15,17,-1,19,21,23,-1,-1,-1,-1,-1,-1,-1,-1,-1,-1,-1,-1],"loss_changes":[1.6477505E1,3.4907656E0,1.12300415E1,2.8116312E0,7.219224E-1,5.4716334E0,9.058952E-2,5.163391E0,2.5429516E0,0E0,6.119311E-3,7.1135387E0,1.8431797E0,0E0,0E0,0E0,0E0,0E0,0E0,0E0,0E0,0E0,0E0,0E0,0E0],"parents":[2147483647,0,0,1,1,2,2,3,3,4,4,5,5,6,6,7,7,8,8,10,10,11,11,12,12],"right_children":[2,4,6,8,10,12,14,16,18,-1,20,22,24,-1,-1,-1,-1,-1,-1,-1,-1,-1,-1,-1,-1],"split_conditions":[1.58E1,1E0,1E0,-1.48E1,8.3E0,2.09E1,1.51E1,5E0,1E0,1.18732296E-1,1.33E1,1.53E1,1.85E1,8.562378E-2,3.171579E-1,-5.113393E-2,3.4462344E-2,-1.6762277E-2,5.7193123E-2,1.0583496E-2,4.005432E-2,6.806862E-2,-9.446174E-2,1.4691578E-1,1.2655335E-2],"split_indices":[5,7,7,2,1,1,1,4,8,0,1,1,2,0,0,0,0,0,0,0,0,0,0,0,0],"split_type":[0,0,0,0,0,0,0,0,0,0,0,0,0,0,0,0,0,0,0,0,0,0,0,0,0],"sum_hessian":[2.75E2,2.47E2,2.8E1,2.38E2,9E0,2.5E1,3E0,5.8E1,1.8E2,2E0,7E0,1.5E1,1E1,1E0,2E0,1.2E1,4.6E1,1.74E2,6E0,1E0,6E0,1E1,5E0,8E0,2E0],"tree_param":{"num_deleted":"0","num_feature":"10","num_nodes":"25","size_leaf_vector":"1"}},{"base_weights":[5.7015434E-2,-1.7312232E-2,6.6460174E-1,1.19048744E-1,-1.1636279E-1,1.3322173E0,3.6127713E-1,-5.1634584E-2,3.5297224E-1,1.4993222E-1,-2.8949443E-1,1.8133763E0,-2.3455937E-1,-1.086731E-2,1.0138884E0,-3.1378478E-2,-1.8029972E-3,5.2370686E-2,-1.1195847E-1,-3.46828E-2,3.1341955E-2,-2.9220466E-2,-1.1940464E-1,9.4923094E-2,2.4769334E-1,1.2178802E-2,-5.439949E-2,-1.6978866E-1,3.767729E-2,4.1567113E-2,1.6141288E-1],"categories":[],"categories_nodes":[],"categories_segments":[],"categories_sizes":[],"default_left":[0,0,0,0,0,0,0,0,0,0,0,0,0,0,0,0,0,0,0,0,0,0,0,0,0,0,0,0,0,0,0],"id":41,"left_children":[1,3,5,7,9,11,13,15,17,19,21,23,25,27,29,-1,-1,-1,-1,-1,-1,-1,-1,-1,-1,-1,-1,-1,-1,-1,-1],"loss_changes":[1.2430636E1,3.336484E0,5.593828E0,4.170617E0,6.636289E0,7.210162E0,5.354063E0,4.6471137E-1,5.1289706E0,2.859034E0,2.5807118E0,1.6160774E-1,2.6656067E-1,7.285666E0,1.302763E0,0E0,0E0,0E0,0E0,0E0,0E0,0E0,0E0,0E0,0E0,0E0,0E0,0E0,0E0,0E0,0E0],"parents":[2147483647,0,0,1,1,2,2,3,3,4,4,5,5,6,6,7,7,8,8,9,9,10,10,11,11,12,12,13,13,14,14],"right_children":[2,4,6,8,10,12,14,16,18,20,22,24,26,28,30,-1,-1,-1,-1,-1,-1,-1,-1,-1,-1,-1,-1,-1,-1,-1,-1],"split_conditions":[1.58E1,3E1,2E1,5.1E0,-1.58E1,2.2E1,2.03E1,8.5E0,1.47E1,4.7E0,2.19E1,4.1E0,1.3E1,4.1E0,4.719291E6,-3.1378478E-2,-1.8029972E-3,5.2370686E-2,-1.1195847E-1,-3.46828E-2,3.1341955E-2,-2.9220466E-2,-1.1940464E-1,9.4923094E-2,2.4769334E-1,1.2178802E-2,-5.439949E-2,-1.6978866E-1,3.767729E-2,4.1567113E-2,1.6141288E-1],"split_indices":[5,0,0,4,2,5,5,2,5,4,1,2,0,2,6,0,0,0,0,0,0,0,0,0,0,0,0,0,0,0,0],"split_type":[0,0,0,0,0,0,0,0,0,0,0,0,0,0,0,0,0,0,0,0,0,0,0,0,0,0,0,0,0,0,0],"sum_hessian":[2.74E2,2.45E2,2.9E1,1.03E2,1.42E2,8E0,2.1E1,6E1,4.3E1,5.6E1,8.6E1,6E0,2E0,1.4E1,7E0,8E0,5.2E1,4.1E1,2E0,1.1E1,4.5E1,8.2E1,4E0,2E0,4E0,1E0,1E0,2E0,1.2E1,3E0,4E0],"tree_param":{"num_deleted":"0","num_feature":"10","num_nodes":"31","size_leaf_vector":"1"}},{"base_weights":[3.9027177E-2,-5.7304394E-3,1.0540107E0,-4.2818934E-2,7.393332E-1,5.1876324E-1,1.9948149E0,-1.8642886E-1,1.9410592E-2,8.130862E-1,-8.742142E-3,8.936325E-2,2.2689605E-2,7.0801616E-2,2.719693E-1,-1.4146978E-2,-1.04945175E-1,4.572132E-3,-1.3376644E-1,1.4951172E-2,1.1259906E-1],"categories":[],"categories_nodes":[],"categories_segments":[],"categories_sizes":[],"default_left":[0,0,0,0,0,0,0,0,0,0,0,0,0,0,0,0,0,0,0,0,0],"id":42,"left_children":[1,3,5,7,9,11,13,15,17,19,-1,-1,-1,-1,-1,-1,-1,-1,-1,-1,-1],"loss_changes":[1.2907661E1,7.575546E0,5.0079203E0,2.3361177E0,8.379469E-1,5.295625E-1,1.88941E-1,3.6226614E0,3.9216118E0,9.1780853E-1,0E0,0E0,0E0,0E0,0E0,0E0,0E0,0E0,0E0,0E0,0E0],"parents":[2147483647,0,0,1,1,2,2,3,3,4,4,5,5,6,6,7,7,8,8,9,9],"right_children":[2,4,6,8,10,12,14,16,18,20,-1,-1,-1,-1,-1,-1,-1,-1,-1,-1,-1],"split_conditions":[1E0,1E0,1.21E1,5.1E0,1.02E1,2.23E1,1.51E1,4.5E0,3.03E1,5.1E0,-8.742142E-3,8.936325E-2,2.2689605E-2,7.0801616E-2,2.719693E-1,-1.4146978E-2,-1.04945175E-1,4.572132E-3,-1.3376644E-1,1.4951172E-2,1.1259906E-1],"split_indices":[7,8,5,4,4,2,1,4,1,4,0,0,0,0,0,0,0,0,0,0,0],"split_type":[0,0,0,0,0,0,0,0,0,0,0,0,0,0,0,0,0,0,0,0,0],"sum_hessian":[2.83E2,2.72E2,1.1E1,2.6E2,1.2E1,8E0,3E0,7.8E1,1.82E2,1.1E1,1E0,4E0,4E0,1E0,2E0,7.2E1,6E0,1.8E2,2E0,2E0,9E0],"tree_param":{"num_deleted":"0","num_feature":"10","num_nodes":"21","size_leaf_vector":"1"}},{"base_weights":[1.5294509E-2,-2.7799066E-2,9.1898507E-1,1.2498145E-1,-1.414025E-1,1.1856003E0,-2.7606073E-1,-4.833537E-2,3.7817717E-1,1.00461274E-1,-2.7369517E-1,4.5468217E-1,1.9165184E-1,-5.1409833E-2,1.7189025E-3,-8.8628745E-3,2.579277E-2,1.2990847E-1,3.121345E-2,-3.9579045E-2,2.6873825E-2,-1.258266E-1,-2.7312763E-2,7.913971E-3,8.302246E-2],"categories":[],"categories_nodes":[],"categories_segments":[],"categories_sizes":[],"default_left":[0,0,0,0,0,0,0,0,0,0,0,0,0,0,0,0,0,0,0,0,0,0,0,0,0],"id":43,"left_children":[1,3,5,7,9,11,13,15,17,19,21,23,-1,-1,-1,-1,-1,-1,-1,-1,-1,-1,-1,-1,-1],"loss_changes":[1.0267623E1,4.391483E0,4.1507063E0,4.7576513E0,4.667033E0,2.2815437E0,1.3886113E-1,4.5262855E-1,3.3776388E0,2.8368802E0,3.1183052E0,4.15354E-1,0E0,0E0,0E0,0E0,0E0,0E0,0E0,0E0,0E0,0E0,0E0,0E0,0E0],"parents":[2147483647,0,0,1,1,2,2,3,3,4,4,5,5,6,6,7,7,8,8,9,9,10,10,11,11],"right_children":[2,4,6,8,10,12,14,16,18,20,22,24,-1,-1,-1,-1,-1,-1,-1,-1,-1,-1,-1,-1,-1],"split_conditions":[2.03E1,3E1,2.36E1,5.1E0,-1.49E1,5.188099E6,1.4E1,1E0,1.5E1,5E0,4.9E0,2.261E3,1.9165184E-1,-5.1409833E-2,1.7189025E-3,-8.8628745E-3,2.579277E-2,1.2990847E-1,3.121345E-2,-3.9579045E-2,2.6873825E-2,-1.258266E-1,-2.7312763E-2,7.913971E-3,8.302246E-2],"split_indices":[5,0,5,4,2,6,0,7,0,4,4,3,0,0,0,0,0,0,0,0,0,0,0,0,0],"split_type":[0,0,0,0,0,0,0,0,0,0,0,0,0,0,0,0,0,0,0,0,0,0,0,0,0],"sum_hessian":[2.62E2,2.51E2,1.1E1,1.07E2,1.44E2,9E0,2E0,6.4E1,4.3E1,5.1E1,9.3E1,4E0,5E0,1E0,1E0,5.9E1,5E0,5E0,3.8E1,1.1E1,4E1,4E0,8.9E1,2E0,2E0],"tree_param":{"num_deleted":"0","num_feature":"10","num_nodes":"25","size_leaf_vector":"1"}},{"base_weights":[2.1469587E-2,-2.5624236E-2,4.250866E-1,-4.3954622E-2,4.1686743E-1,-6.4256843E-3,6.525365E-1,-2.8643128E-2,-5.495168E-1,2.3510808E-2,8.391632E-2,-1.562178E-1,2.5329477E-1,8.1239843E-1,-1.500454E-1,-5.047726E-3,7.13356E-2,-1.2111405E-1,5.7155224E-3,-1.5190063E-2,6.3317336E-2,-3.0683898E-3,1.20929115E-1,-4.8325196E-2,8.209533E-3],"categories":[],"categories_nodes":[],"categories_segments":[],"categories_sizes":[],"default_left":[0,0,0,0,0,0,0,0,0,0,0,0,0,0,0,0,0,0,0,0,0,0,0,0,0],"id":44,"left_children":[1,3,5,7,9,11,13,15,17,-1,-1,-1,19,21,23,-1,-1,-1,-1,-1,-1,-1,-1,-1,-1],"loss_changes":[5.276072E0,2.037973E0,2.8504682E0,1.8420794E0,4.8701394E-1,4.0305734E0,2.55964E0,1.9819179E0,1.969908E0,0E0,0E0,0E0,1.1089871E0,2.644844E0,2.4833706E-1,0E0,0E0,0E0,0E0,0E0,0E0,0E0,0E0,0E0,0E0],"parents":[2147483647,0,0,1,1,2,2,3,3,4,4,5,5,6,6,7,7,8,8,12,12,13,13,14,14],"right_children":[2,4,6,8,10,12,14,16,18,-1,-1,-1,20,22,24,-1,-1,-1,-1,-1,-1,-1,-1,-1,-1],"split_conditions":[1.58E1,1E0,6.3E0,1.37E1,2.115E3,2.4E0,2.2E1,1E0,4.597393E6,2.3510808E-2,8.391632E-2,-1.562178E-1,2.02E1,6.99E2,1.52E1,-5.047726E-3,7.13356E-2,-1.2111405E-1,5.7155224E-3,-1.5190063E-2,6.3317336E-2,-3.0683898E-3,1.20929115E-1,-4.8325196E-2,8.209533E-3],"split_indices":[5,7,4,5,3,2,5,8,6,0,0,0,5,3,1,0,0,0,0,0,0,0,0,0,0],"split_type":[0,0,0,0,0,0,0,0,0,0,0,0,0,0,0,0,0,0,0,0,0,0,0,0,0],"sum_hessian":[2.76E2,2.48E2,2.8E1,2.39E2,9E0,1E1,1.8E1,2.33E2,6E0,6E0,3E0,1E0,9E0,1.5E1,3E0,2.29E2,4E0,3E0,3E0,4E0,5E0,3E0,1.2E1,1E0,2E0],"tree_param":{"num_deleted":"0","num_feature":"10","num_nodes":"25","size_leaf_vector":"1"}},{"base_weights":[2.4556085E-2,-1.2720233E-2,7.940002E-1,-3.5818037E-2,5.322845E-1,3.7758675E-1,1.6365337E0,6.593268E-2,-1.03422254E-1,3.0633673E-1,1.2392395E-1,8.473678E-2,2.0718098E-1,2.2767517E-1,5.1255338E-2,-8.622103E-3,2.5941113E-2,1.37855075E-2,-2.7632566E-2,7.9602465E-2,2.072296E-3,5.737381E-3,2.6774138E-2],"categories":[],"categories_nodes":[],"categories_segments":[],"categories_sizes":[],"default_left":[0,0,0,0,0,0,0,0,0,0,0,0,0,0,0,0,0,0,0,0,0,0,0],"id":45,"left_children":[1,3,5,7,9,11,13,15,17,19,-1,-1,21,-1,-1,-1,-1,-1,-1,-1,-1,-1,-1],"loss_changes":[8.069755E0,3.4053485E0,3.943016E0,1.7884222E0,9.273908E-1,4.135747E-1,4.5106983E-1,2.1684418E0,4.346305E0,9.173633E-1,0E0,0E0,9.651184E-3,0E0,0E0,0E0,0E0,0E0,0E0,0E0,0E0,0E0,0E0],"parents":[2147483647,0,0,1,1,2,2,3,3,4,4,5,5,6,6,7,7,8,8,9,9,12,12],"right_children":[2,4,6,8,10,12,14,16,18,20,-1,-1,22,-1,-1,-1,-1,-1,-1,-1,-1,-1,-1],"split_conditions":[1E0,1E0,1.21E1,3E1,2.03E1,8.3E0,1.8E1,4E0,-1.58E1,1.5E1,1.2392395E-1,8.473678E-2,1.33E1,2.2767517E-1,5.1255338E-2,-8.622103E-3,2.5941113E-2,1.37855075E-2,-2.7632566E-2,7.9602465E-2,2.072296E-3,5.737381E-3,2.6774138E-2],"split_indices":[7,8,5,0,5,1,0,4,2,0,0,0,1,0,0,0,0,0,0,0,0,0,0],"split_type":[0,0,0,0,0,0,0,0,0,0,0,0,0,0,0,0,0,0,0,0,0,0,0],"sum_hessian":[2.8E2,2.68E2,1.2E1,2.58E2,1E1,9E0,3E0,1.03E2,1.55E2,8E0,2E0,2E0,7E0,2E0,1E0,5.4E1,4.9E1,5.7E1,9.8E1,3E0,5E0,1E0,6E0],"tree_param":{"num_deleted":"0","num_feature":"10","num_nodes":"23","size_leaf_vector":"1"}},{"base_weights":[2.2324426E-2,-9.885882E-3,7.2372246E-1,1.15533374E-1,-1.07273236E-1,2.910046E-1,1.8196884E-1,-2.91486E-2,3.11006E-1,-4.8833567E-1,-5.738434E-2,4.793892E-1,-2.4556096E-1,-2.3669628E-2,-7.499618E-4,4.2355396E-2,-1.02171816E-1,-1.1785982E-1,-3.130043E-2,2.4261039E-2,-2.0208705E-2,-1.9184875E-3,6.775398E-2,-4.6982117E-2,2.7811432E-3],"categories":[],"categories_nodes":[],"categories_segments":[],"categories_sizes":[],"default_left":[0,0,0,0,0,0,0,0,0,0,0,0,0,0,0,0,0,0,0,0,0,0,0,0,0],"id":46,"left_children":[1,3,5,7,9,11,-1,13,15,17,19,21,23,-1,-1,-1,-1,-1,-1,-1,-1,-1,-1,-1,-1],"loss_changes":[6.1748376E0,3.212527E0,3.6748233E0,3.2614222E0,2.7855735E0,1.0274456E0,0E0,2.5666833E-1,2.690292E0,1.6536894E0,3.8378534E0,3.04564E-1,1.2674583E-1,0E0,0E0,0E0,0E0,0E0,0E0,0E0,0E0,0E0,0E0,0E0,0E0],"parents":[2147483647,0,0,1,1,2,2,3,3,4,4,5,5,7,7,8,8,9,9,10,10,11,11,12,12],"right_children":[2,4,6,8,10,12,-1,14,16,18,20,22,24,-1,-1,-1,-1,-1,-1,-1,-1,-1,-1,-1,-1],"split_conditions":[2.03E1,3E1,2.93E1,5.1E0,5E0,2.36E1,1.8196884E-1,8.4E0,3.03E1,5.5E1,-1.48E1,3.5E0,1.4E1,-2.3669628E-2,-7.499618E-4,4.2355396E-2,-1.02171816E-1,-1.1785982E-1,-3.130043E-2,2.4261039E-2,-2.0208705E-2,-1.9184875E-3,6.775398E-2,-4.6982117E-2,2.7811432E-3],"split_indices":[5,0,1,4,4,5,0,2,1,0,1,2,0,0,0,0,0,0,0,0,0,0,0,0,0],"split_type":[0,0,0,0,0,0,0,0,0,0,0,0,0,0,0,0,0,0,0,0,0,0,0,0,0],"sum_hessian":[2.72E2,2.61E2,1.1E1,1.14E2,1.47E2,8E0,3E0,6.6E1,4.8E1,1.6E1,1.31E2,6E0,2E0,7E0,5.9E1,4.7E1,1E0,4E0,1.2E1,3.9E1,9.2E1,1E0,5E0,1E0,1E0],"tree_param":{"num_deleted":"0","num_feature":"10","num_nodes":"25","size_leaf_vector":"1"}},{"base_weights":[4.110299E-2,-1.2662333E-2,5.6360227E-1,2.1867456E-3,-4.9450916E-1,8.830157E-2,8.967956E-1,9.679468E-2,-6.860535E-2,-1.0782448E-1,3.314638E-2,-3.0240822E-1,2.7261877E-1,5.519661E-1,1.6885144E-1,-3.033663E-3,3.3854492E-2,1.28693655E-2,-1.9803956E-2,-4.7299196E-3,1.5050011E-2,-8.501892E-3,-5.9825134E-2,-5.811424E-3,5.6991942E-2,9.7066574E-2,1.5991973E-2],"categories":[],"categories_nodes":[],"categories_segments":[],"categories_sizes":[],"default_left":[0,0,0,0,0,0,0,0,0,0,0,0,0,0,0,0,0,0,0,0,0,0,0,0,0,0,0],"id":47,"left_children":[1,3,5,7,9,11,13,15,17,-1,19,21,23,25,-1,-1,-1,-1,-1,-1,-1,-1,-1,-1,-1,-1,-1],"loss_changes":[7.226869E0,1.6753471E0,3.7216196E0,1.5336692E0,1.5220976E0,8.746021E-1,1.686861E0,2.2242568E0,2.2390404E0,0E0,3.1724855E-2,1.463457E-1,5.426194E-1,9.6793413E-1,0E0,0E0,0E0,0E0,0E0,0E0,0E0,0E0,0E0,0E0,0E0,0E0,0E0],"parents":[2147483647,0,0,1,1,2,2,3,3,4,4,5,5,6,6,7,7,8,8,10,10,11,11,12,12,13,13],"right_children":[2,4,6,8,10,12,14,16,18,-1,20,22,24,26,-1,-1,-1,-1,-1,-1,-1,-1,-1,-1,-1,-1,-1],"split_conditions":[1.58E1,1.37E1,4.719291E6,3E1,4.597393E6,6.8E0,2.83E1,5.1E0,-1.49E1,-1.0782448E-1,1.66E1,1.44E1,2.66646E6,1.4E1,1.6885144E-1,-3.033663E-3,3.3854492E-2,1.28693655E-2,-1.9803956E-2,-4.7299196E-3,1.5050011E-2,-8.501892E-3,-5.9825134E-2,-5.811424E-3,5.6991942E-2,9.7066574E-2,1.5991973E-2],"split_indices":[5,5,6,0,6,2,1,4,1,0,1,1,6,0,0,0,0,0,0,0,0,0,0,0,0,0,0],"split_type":[0,0,0,0,0,0,0,0,0,0,0,0,0,0,0,0,0,0,0,0,0,0,0,0,0,0,0],"sum_hessian":[2.56E2,2.33E2,2.3E1,2.27E2,6E0,1E1,1.3E1,9.7E1,1.3E2,3E0,3E0,3E0,7E0,9E0,4E0,5.9E1,3.8E1,4.6E1,8.4E1,2E0,1E0,2E0,1E0,3E0,4E0,5E0,4E0],"tree_param":{"num_deleted":"0","num_feature":"10","num_nodes":"27","size_leaf_vector":"1"}},{"base_weights":[3.1903934E-2,4.579593E-4,7.7798945E-1,-2.2149941E-2,4.3519005E-1,3.8654423E-1,1.3663826E0,-1.3538045E-1,2.263626E-2,2.9843557E-1,9.4987184E-2,6.238834E-2,1.4785194E-2,1.8985108E-1,4.3155212E-2,-5.6171197E-2,-4.548254E-3,2.0292485E-2,-2.779954E-3,6.3831575E-2,1.06824385E-2],"categories":[],"categories_nodes":[],"categories_segments":[],"categories_sizes":[],"default_left":[0,0,0,0,0,0,0,0,0,0,0,0,0,0,0,0,0,0,0,0,0],"id":48,"left_children":[1,3,5,7,9,11,13,15,17,19,-1,-1,-1,-1,-1,-1,-1,-1,-1,-1,-1],"loss_changes":[6.38114E0,2.5846748E0,2.005394E0,1.2708557E0,3.973279E-1,2.168858E-1,2.9970503E-1,2.2849514E0,1.2114649E0,4.9051732E-1,0E0,0E0,0E0,0E0,0E0,0E0,0E0,0E0,0E0,0E0,0E0],"parents":[2147483647,0,0,1,1,2,2,3,3,4,4,5,5,6,6,7,7,8,8,9,9],"right_children":[2,4,6,8,10,12,14,16,18,20,-1,-1,-1,-1,-1,-1,-1,-1,-1,-1,-1],"split_conditions":[1E0,1E0,1.21E1,5.1E0,2.03E1,2.23E1,1.8E1,2.4E0,-1.58E1,1.5E1,9.4987184E-2,6.238834E-2,1.4785194E-2,1.8985108E-1,4.3155212E-2,-5.6171197E-2,-4.548254E-3,2.0292485E-2,-2.779954E-3,6.3831575E-2,1.06824385E-2],"split_indices":[7,8,5,4,5,2,0,2,2,0,0,0,0,0,0,0,0,0,0,0,0],"split_type":[0,0,0,0,0,0,0,0,0,0,0,0,0,0,0,0,0,0,0,0,0],"sum_hessian":[2.71E2,2.61E2,1E1,2.49E2,1.2E1,7E0,3E0,7E1,1.79E2,1E1,2E0,4E0,3E0,2E0,1E0,1.5E1,5.5E1,4.2E1,1.37E2,4E0,6E0],"tree_param":{"num_deleted":"0","num_feature":"10","num_nodes":"21","size_leaf_vector":"1"}},{"base_weights":[1.11021055E-2,-9.561403E-3,5.116525E-1,-2.8019778E-2,4.6762085E-1,5.73135E-1,-6.190338E-3,7.0342384E-2,-5.5636726E-2,1.3794708E-1,7.697052E-1,7.4885406E-2,6.896667E-3,-2.7437981E-2,1.861857E-2,4.159976E-3,-1.7341096E-2,4.7330474E-3,1.7971162E-2,1.0411903E-1,2.2673491E-2],"categories":[],"categories_nodes":[],"categories_segments":[],"categories_sizes":[],"default_left":[0,0,0,0,0,0,0,0,0,0,0,0,0,0,0,0,0,0,0,0,0],"id":49,"left_children":[1,3,5,7,9,11,-1,13,15,17,19,-1,-1,-1,-1,-1,-1,-1,-1,-1,-1],"loss_changes":[2.8699386E0,2.3648412E0,4.1048813E-1,7.0476097E-1,8.89714E-1,2.2665882E-1,0E0,1.480896E0,1.6261532E0,1.0747686E-3,1.2049651E-1,0E0,0E0,0E0,0E0,0E0,0E0,0E0,0E0,0E0,0E0],"parents":[2147483647,0,0,1,1,2,2,3,3,4,4,5,5,7,7,8,8,9,9,10,10],"right_children":[2,4,6,8,10,12,-1,14,16,18,20,-1,-1,-1,-1,-1,-1,-1,-1,-1,-1],"split_conditions":[1E0,1E0,1.02E1,-1.47E1,2.5E0,2.95E1,-6.190338E-3,4.9E0,3E1,1.33E1,3.7E1,7.4885406E-2,6.896667E-3,-2.7437981E-2,1.861857E-2,4.159976E-3,-1.7341096E-2,4.7330474E-3,1.7971162E-2,1.0411903E-1,2.2673491E-2],"split_indices":[8,7,4,1,4,1,0,4,0,1,0,0,0,0,0,0,0,0,0,0,0],"split_type":[0,0,0,0,0,0,0,0,0,0,0,0,0,0,0,0,0,0,0,0,0],"sum_hessian":[2.76E2,2.66E2,1E1,2.57E2,9E0,9E0,1E0,5.6E1,2.01E2,5E0,4E0,8E0,1E0,1.2E1,4.4E1,1E2,1.01E2,1E0,4E0,3E0,1E0],"tree_param":{"num_deleted":"0","num_feature":"10","num_nodes":"21","size_leaf_vector":"1"}},{"base_weights":[2.1337768E-2,-3.9123013E-3,5.624361E-1,-2.1983344E-2,3.383484E-1,2.2432327E-1,1.182581E0,-7.5812736E-3,-2.2853929E-1,5.7080843E-2,4.5701388E-1,4.2560004E-2,1.2004852E-2,1.6633362E-1,3.4319E-2,7.7198534E-3,-6.372815E-3,-6.967449E-3,-1.13750376E-1,3.6610868E-2,-2.5194703E-2,6.315159E-2,-5.818863E-3],"categories":[],"categories_nodes":[],"categories_segments":[],"categories_sizes":[],"default_left":[0,0,0,0,0,0,0,0,0,0,0,0,0,0,0,0,0,0,0,0,0,0,0],"id":50,"left_children":[1,3,5,7,9,11,13,15,17,19,21,-1,-1,-1,-1,-1,-1,-1,-1,-1,-1,-1,-1],"loss_changes":[3.6774857E0,1.6031702E0,2.2508667E0,7.300764E-1,4.0781093E-1,1.1031407E-1,3.3352327E-1,7.5968605E-1,1.9071696E0,3.9519408E-1,3.405714E-1,0E0,0E0,0E0,0E0,0E0,0E0,0E0,0E0,0E0,0E0,0E0,0E0],"parents":[2147483647,0,0,1,1,2,2,3,3,4,4,5,5,6,6,7,7,8,8,9,9,10,10],"right_children":[2,4,6,8,10,12,14,16,18,20,22,-1,-1,-1,-1,-1,-1,-1,-1,-1,-1,-1,-1],"split_conditions":[1E0,1E0,1.21E1,2.34E1,1.09E1,2.23E1,1.8E1,3E1,1.34E1,7.4E0,1.02E1,4.2560004E-2,1.2004852E-2,1.6633362E-1,3.4319E-2,7.7198534E-3,-6.372815E-3,-6.967449E-3,-1.13750376E-1,3.6610868E-2,-2.5194703E-2,6.315159E-2,-5.818863E-3],"split_indices":[7,8,5,2,1,2,0,0,4,1,4,0,0,0,0,0,0,0,0,0,0,0,0],"split_type":[0,0,0,0,0,0,0,0,0,0,0,0,0,0,0,0,0,0,0,0,0,0,0],"sum_hessian":[2.68E2,2.57E2,1.1E1,2.45E2,1.2E1,8E0,3E0,2.3E2,1.5E1,4E0,8E0,3E0,5E0,2E0,1E0,8.9E1,1.41E2,1.3E1,2E0,2E0,2E0,7E0,1E0],"tree_param":{"num_deleted":"0","num_feature":"10","num_nodes":"23","size_leaf_vector":"1"}},{"base_weights":[2.8437415E-2,2.3605644E-3,5.257219E-1,-8.862648E-2,3.843721E-2,2.4710503E-1,1.0908337E0,-4.8388716E-2,-5.164708E-1,5.422643E-2,-3.572731E-1,1.1142894E-1,5.0731428E-2,3.225998E-2,1.5302673E-1,-7.324997E-3,4.6443097E-2,-2.0659272E-2,-1.3428131E-1,3.764744E-3,3.7384395E-2,-1.1044092E-1,3.541357E-2,3.7287138E-3,1.4357147E-2],"categories":[],"categories_nodes":[],"categories_segments":[],"categories_sizes":[],"default_left":[0,0,0,0,0,0,0,0,0,0,0,0,0,0,0,0,0,0,0,0,0,0,0,0,0],"id":51,"left_children":[1,3,5,7,9,11,13,15,17,19,21,23,-1,-1,-1,-1,-1,-1,-1,-1,-1,-1,-1,-1,-1],"loss_changes":[3.3833063E0,8.2075083E-1,1.7772954E0,1.197309E0,1.1377579E0,1.9121647E-1,2.6345015E-1,3.8723645E-1,1.0521148E0,1.0075448E0,2.842969E0,9.0268254E-4,0E0,0E0,0E0,0E0,0E0,0E0,0E0,0E0,0E0,0E0,0E0,0E0,0E0],"parents":[2147483647,0,0,1,1,2,2,3,3,4,4,5,5,6,6,7,7,8,8,9,9,10,10,11,11],"right_children":[2,4,6,8,10,12,14,16,18,20,22,24,-1,-1,-1,-1,-1,-1,-1,-1,-1,-1,-1,-1,-1],"split_conditions":[1E0,5.1E0,1.21E1,4.5E0,3E1,2.115E3,1.51E1,1.47E1,1.85E1,2.06E1,3.786843E6,1.33E1,5.0731428E-2,3.225998E-2,1.5302673E-1,-7.324997E-3,4.6443097E-2,-2.0659272E-2,-1.3428131E-1,3.764744E-3,3.7384395E-2,-1.1044092E-1,3.541357E-2,3.7287138E-3,1.4357147E-2],"split_indices":[7,4,5,4,1,3,1,5,5,1,6,1,0,0,0,0,0,0,0,0,0,0,0,0,0],"split_type":[0,0,0,0,0,0,0,0,0,0,0,0,0,0,0,0,0,0,0,0,0,0,0,0,0],"sum_hessian":[2.6E2,2.48E2,1.2E1,7E1,1.78E2,9E0,3E0,6.5E1,5E0,1.72E2,6E0,6E0,3E0,1E0,2E0,6.4E1,1E0,4E0,1E0,1.59E2,1.3E1,3E0,3E0,1E0,5E0],"tree_param":{"num_deleted":"0","num_feature":"10","num_nodes":"25","size_leaf_vector":"1"}},{"base_weights":[8.863336E-3,-6.544789E-3,4.02425E-1,-2.1395614E-2,2.9720497E-1,9.8832704E-2,5.8834773E-1,6.528547E-2,-4.5663234E-2,1.3208008E-1,5.9443474E-1,3.5050963E-3,1.3072357E-2,7.843588E-2,1.5715484E-2,-2.31386E-2,1.6295651E-2,2.9370575E-3,-1.4470824E-2,2.8299179E-2,-4.1873474E-2,1.4935913E-2,8.515228E-2],"categories":[],"categories_nodes":[],"categories_segments":[],"categories_sizes":[],"default_left":[0,0,0,0,0,0,0,0,0,0,0,0,0,0,0,0,0,0,0,0,0,0,0],"id":52,"left_children":[1,3,5,7,9,11,13,15,17,19,21,-1,-1,-1,-1,-1,-1,-1,-1,-1,-1,-1,-1],"loss_changes":[1.6096063E0,1.1611582E0,5.0629914E-1,5.1834935E-1,5.104474E-1,3.3530965E-4,9.356022E-2,1.0089606E0,1.0119655E0,5.3143287E-1,1.2817931E-1,0E0,0E0,0E0,0E0,0E0,0E0,0E0,0E0,0E0,0E0,0E0,0E0],"parents":[2147483647,0,0,1,1,2,2,3,3,4,4,5,5,6,6,7,7,8,8,9,9,10,10],"right_children":[2,4,6,8,10,12,14,16,18,20,22,-1,-1,-1,-1,-1,-1,-1,-1,-1,-1,-1,-1],"split_conditions":[1E0,1E0,2.5E0,-1.66E1,1.0327E4,1.33E1,3.7E1,5E0,3E1,9.507E3,1.09E1,3.5050963E-3,1.3072357E-2,7.843588E-2,1.5715484E-2,-2.31386E-2,1.6295651E-2,2.9370575E-3,-1.4470824E-2,2.8299179E-2,-4.1873474E-2,1.4935913E-2,8.515228E-2],"split_indices":[7,8,4,2,3,1,0,4,0,3,1,0,0,0,0,0,0,0,0,0,0,0,0],"split_type":[0,0,0,0,0,0,0,0,0,0,0,0,0,0,0,0,0,0,0,0,0,0,0],"sum_hessian":[2.64E2,2.55E2,9E0,2.44E2,1.1E1,4E0,5E0,5.3E1,1.91E2,8E0,3E0,1E0,3E0,4E0,1E0,1.1E1,4.2E1,9.9E1,9.2E1,7E0,1E0,1E0,2E0],"tree_param":{"num_deleted":"0","num_feature":"10","num_nodes":"23","size_leaf_vector":"1"}},{"base_weights":[1.6383633E-2,-4.6154037E-3,5.131441E-1,-9.5835805E-2,3.1315047E-2,2.3186016E-1,9.4742584E-1,-5.650559E-2,-6.272916E-1,8.611083E-3,2.1145557E-1,3.7886903E-2,8.287811E-3,1.3450928E-1,2.5618285E-2,-8.139237E-3,4.3480225E-2,1.7857577E-3,-1.2724409E-1,3.2864974E-3,-7.307723E-2,7.431345E-2,9.488283E-3],"categories":[],"categories_nodes":[],"categories_segments":[],"categories_sizes":[],"default_left":[0,0,0,0,0,0,0,0,0,0,0,0,0,0,0,0,0,0,0,0,0,0,0],"id":53,"left_children":[1,3,5,7,9,11,13,15,17,19,21,-1,-1,-1,-1,-1,-1,-1,-1,-1,-1,-1,-1],"loss_changes":[2.8293023E0,8.584521E-1,1.1240509E0,1.5113224E0,7.6708114E-1,8.7415636E-2,2.7001143E-1,3.5650635E-1,1.4063272E0,1.9648193E0,1.0848305E0,0E0,0E0,0E0,0E0,0E0,0E0,0E0,0E0,0E0,0E0,0E0,0E0],"parents":[2147483647,0,0,1,1,2,2,3,3,4,4,5,5,6,6,7,7,8,8,9,9,10,10],"right_children":[2,4,6,8,10,12,14,16,18,20,22,-1,-1,-1,-1,-1,-1,-1,-1,-1,-1,-1,-1],"split_conditions":[1E0,5E0,1.21E1,4.5E0,1.58E1,2.23E1,1.8E1,2.19E1,3.576102E6,1.31E1,1.68E1,3.7886903E-2,8.287811E-3,1.3450928E-1,2.5618285E-2,-8.139237E-3,4.3480225E-2,1.7857577E-3,-1.2724409E-1,3.2864974E-3,-7.307723E-2,7.431345E-2,9.488283E-3],"split_indices":[7,4,5,4,5,2,0,5,6,5,5,0,0,0,0,0,0,0,0,0,0,0,0],"split_type":[0,0,0,0,0,0,0,0,0,0,0,0,0,0,0,0,0,0,0,0,0,0,0],"sum_hessian":[2.7E2,2.6E2,1E1,7.3E1,1.87E2,7E0,3E0,6.9E1,4E0,1.67E2,2E1,4E0,3E0,2E0,1E0,6.8E1,1E0,2E0,2E0,1.63E2,4E0,4E0,1.6E1],"tree_param":{"num_deleted":"0","num_feature":"10","num_nodes":"23","size_leaf_vector":"1"}},{"base_weights":[1.9117925E-2,7.6272944E-4,4.2745748E-1,-1.1839807E-2,2.706035E-1,1.8160206E-1,8.7376785E-1,-9.880148E-2,2.124104E-2,1.4856377E-1,7.046417E-2,3.757816E-2,7.6362607E-3,1.2374878E-1,2.4081115E-2,-7.157882E-3,-6.1561387E-2,4.035244E-3,-3.6247183E-2,-3.497635E-2,2.7581025E-2],"categories":[],"categories_nodes":[],"categories_segments":[],"categories_sizes":[],"default_left":[0,0,0,0,0,0,0,0,0,0,0,0,0,0,0,0,0,0,0,0,0],"id":54,"left_children":[1,3,5,7,9,11,13,15,17,19,-1,-1,-1,-1,-1,-1,-1,-1,-1,-1,-1],"loss_changes":[2.0908217E0,9.1458565E-1,1.1580558E0,7.414274E-1,3.7641346E-1,1.1973822E-1,2.1702743E-1,1.1208308E0,7.589808E-1,4.2464265E-1,0E0,0E0,0E0,0E0,0E0,0E0,0E0,0E0,0E0,0E0,0E0],"parents":[2147483647,0,0,1,1,2,2,3,3,4,4,5,5,6,6,7,7,8,8,9,9],"right_children":[2,4,6,8,10,12,14,16,18,20,-1,-1,-1,-1,-1,-1,-1,-1,-1,-1,-1],"split_conditions":[1E0,1E0,1.21E1,5.1E0,2.03E1,2.23E1,1.8E1,4.5E0,3E1,1.07E1,7.046417E-2,3.757816E-2,7.6362607E-3,1.2374878E-1,2.4081115E-2,-7.157882E-3,-6.1561387E-2,4.035244E-3,-3.6247183E-2,-3.497635E-2,2.7581025E-2],"split_indices":[7,8,5,4,5,2,0,4,1,1,0,0,0,0,0,0,0,0,0,0,0],"split_type":[0,0,0,0,0,0,0,0,0,0,0,0,0,0,0,0,0,0,0,0,0],"sum_hessian":[2.78E2,2.67E2,1.1E1,2.56E2,1.1E1,8E0,3E0,7E1,1.86E2,9E0,2E0,3E0,5E0,2E0,1E0,6.5E1,5E0,1.8E2,6E0,1E0,8E0],"tree_param":{"num_deleted":"0","num_feature":"10","num_nodes":"21","size_leaf_vector":"1"}},{"base_weights":[1.4213927E-2,-1.570455E-2,2.7976704E-1,-6.1284457E-3,-3.4588867E-1,-6.653907E-2,4.7585595E-1,5.383009E-2,-4.9154095E-2,-7.7848606E-2,4.343319E-2,-1.14028014E-1,1.16853714E-1,5.9070086E-1,-2.95269E-1,-2.8796494E-3,2.1007456E-2,-4.0186746E-3,-9.16571E-2,1.5324211E-2,-3.2668305E-3,-1.1714355E-2,3.3132706E-2,1.01144254E-1,1.7529013E-2,-5.174675E-2,-1.4016724E-3],"categories":[],"categories_nodes":[],"categories_segments":[],"categories_sizes":[],"default_left":[0,0,0,0,0,0,0,0,0,0,0,0,0,0,0,0,0,0,0,0,0,0,0,0,0,0,0],"id":55,"left_children":[1,3,5,7,9,11,13,15,17,-1,19,-1,21,23,25,-1,-1,-1,-1,-1,-1,-1,-1,-1,-1,-1,-1],"loss_changes":[2.1971984E0,7.851878E-1,1.9330528E0,6.2952644E-1,8.535188E-1,1.8937333E0,1.7684917E0,9.66586E-1,1.5641351E0,0E0,2.7293084E-2,0E0,3.6850682E-1,1.670804E0,1.1062792E-1,0E0,0E0,0E0,0E0,0E0,0E0,0E0,0E0,0E0,0E0,0E0,0E0],"parents":[2147483647,0,0,1,1,2,2,3,3,4,4,5,5,6,6,7,7,8,8,10,10,12,12,13,13,14,14],"right_children":[2,4,6,8,10,12,14,16,18,-1,20,-1,22,24,26,-1,-1,-1,-1,-1,-1,-1,-1,-1,-1,-1,-1],"split_conditions":[1.58E1,1.37E1,6.3E0,3E1,4.597393E6,2.4E0,2.2E1,5.1E0,9.2E0,-7.7848606E-2,5.566E3,-1.14028014E-1,2.02E1,1.47E1,1.4E1,-2.8796494E-3,2.1007456E-2,-4.0186746E-3,-9.16571E-2,1.5324211E-2,-3.2668305E-3,-1.1714355E-2,3.3132706E-2,1.01144254E-1,1.7529013E-2,-5.174675E-2,-1.4016724E-3],"split_indices":[5,5,4,0,6,2,5,4,5,0,3,0,5,2,0,0,0,0,0,0,0,0,0,0,0,0,0],"split_type":[0,0,0,0,0,0,0,0,0,0,0,0,0,0,0,0,0,0,0,0,0,0,0,0,0,0,0],"sum_hessian":[2.75E2,2.48E2,2.7E1,2.42E2,6E0,1E1,1.7E1,1.01E2,1.41E2,3E0,3E0,1E0,9E0,1.5E1,2E0,6.2E1,3.9E1,1.39E2,2E0,1E0,2E0,4E0,5E0,9E0,6E0,1E0,1E0],"tree_param":{"num_deleted":"0","num_feature":"10","num_nodes":"27","size_leaf_vector":"1"}},{"base_weights":[4.9596606E-3,-5.716312E-3,3.199429E-1,-1.8004352E-2,2.3481281E-1,5.566177E-2,1.3445892E-2,4.0597443E-2,-5.759633E-2,1.4237906E-1,5.945587E-2,5.8732186E-3,-4.864197E-2,8.185973E-3,-1.53141385E-2,3.386783E-2,2.657318E-3],"categories":[],"categories_nodes":[],"categories_segments":[],"categories_sizes":[],"default_left":[0,0,0,0,0,0,0,0,0,0,0,0,0,0,0,0,0],"id":56,"left_children":[1,3,5,7,9,-1,-1,11,13,15,-1,-1,-1,-1,-1,-1,-1],"loss_changes":[9.23223E-1,7.904256E-1,2.1727931E-1,5.916592E-1,2.426666E-1,0E0,0E0,4.031946E-1,1.3477645E0,1.7871706E-1,0E0,0E0,0E0,0E0,0E0,0E0,0E0],"parents":[2147483647,0,0,1,1,2,2,3,3,4,4,7,7,8,8,9,9],"right_children":[2,4,6,8,10,-1,-1,12,14,16,-1,-1,-1,-1,-1,-1,-1],"split_conditions":[1E0,1E0,1.6E1,3E1,2.03E1,5.566177E-2,1.3445892E-2,2.36E1,-1.58E1,1.5E1,5.945587E-2,5.8732186E-3,-4.864197E-2,8.185973E-3,-1.53141385E-2,3.386783E-2,2.657318E-3],"split_indices":[7,8,1,0,5,0,0,5,2,0,0,0,0,0,0,0,0],"split_type":[0,0,0,0,0,0,0,0,0,0,0,0,0,0,0,0,0],"sum_hessian":[2.73E2,2.65E2,8E0,2.53E2,1.2E1,4E0,4E0,1.02E2,1.51E2,1E1,2E0,1.01E2,1E0,5.4E1,9.7E1,4E0,6E0],"tree_param":{"num_deleted":"0","num_feature":"10","num_nodes":"17","size_leaf_vector":"1"}},{"base_weights":[1.30894575E-2,-2.9130983E-3,3.4805235E-1,-7.788093E-2,2.8690837E-2,1.119504E-1,6.56205E-1,-3.067081E-1,-2.0335212E-2,3.9949898E-2,-2.5205913E-1,2.588089E-2,4.1430157E-2,1.0299316E-1,2.8247831E-2,-9.504254E-2,-1.4325368E-2,-1.3616425E-4,-2.3538092E-2,1.7659456E-3,4.1693434E-2,-8.4009476E-2,3.107706E-2,6.296997E-3,-8.276367E-4],"categories":[],"categories_nodes":[],"categories_segments":[],"categories_sizes":[],"default_left":[0,0,0,0,0,0,0,0,0,0,0,0,0,0,0,0,0,0,0,0,0,0,0,0,0],"id":57,"left_children":[1,3,5,7,9,11,13,15,17,19,21,-1,23,-1,-1,-1,-1,-1,-1,-1,-1,-1,-1,-1,-1],"loss_changes":[1.4107628E0,5.9929264E-1,7.9960287E-1,9.8136497E-1,5.7272434E-1,4.9581543E-2,2.231276E-1,1.2691559E0,2.056981E-1,1.3294764E0,1.7839788E0,0E0,3.5645058E-3,0E0,0E0,0E0,0E0,0E0,0E0,0E0,0E0,0E0,0E0,0E0,0E0],"parents":[2147483647,0,0,1,1,2,2,3,3,4,4,5,5,6,6,7,7,8,8,9,9,10,10,12,12],"right_children":[2,4,6,8,10,12,14,16,18,20,22,-1,24,-1,-1,-1,-1,-1,-1,-1,-1,-1,-1,-1,-1],"split_conditions":[1E0,5E0,5.4E0,2.4E0,3E1,1.66E1,1.8E1,5.5E1,2.58E1,2.4E1,3.786843E6,2.588089E-2,2.3E1,1.0299316E-1,2.8247831E-2,-9.504254E-2,-1.4325368E-2,-1.3616425E-4,-2.3538092E-2,1.7659456E-3,4.1693434E-2,-8.4009476E-2,3.107706E-2,6.296997E-3,-8.276367E-4],"split_indices":[7,4,4,2,1,2,0,0,2,1,6,0,0,0,0,0,0,0,0,0,0,0,0,0,0],"split_type":[0,0,0,0,0,0,0,0,0,0,0,0,0,0,0,0,0,0,0,0,0,0,0,0,0],"sum_hessian":[2.62E2,2.51E2,1.1E1,7.4E1,1.77E2,7E0,4E0,1.4E1,6E1,1.71E2,6E0,2E0,5E0,2E0,2E0,3E0,1.1E1,5.5E1,5E0,1.59E2,1.2E1,3E0,3E0,4E0,1E0],"tree_param":{"num_deleted":"0","num_feature":"10","num_nodes":"25","size_leaf_vector":"1"}},{"base_weights":[5.4413546E-3,-5.864459E-3,2.742306E-1,-1.6558947E-2,2.002499E-1,7.9237804E-2,4.9237442E-1,6.0078867E-2,-3.797997E-2,9.226761E-2,4.2014313E-1,1.5589751E-2,3.298416E-2,2.947094E-2,8.877044E-2,-1.3364188E-2,1.3261743E-2,3.8257767E-3,-1.3153264E-2,1.8629506E-2,-2.8472213E-2,9.562225E-3,6.0848083E-2,5.3366087E-3,-7.7796937E-4],"categories":[],"categories_nodes":[],"categories_segments":[],"categories_sizes":[],"default_left":[0,0,0,0,0,0,0,0,0,0,0,0,0,0,0,0,0,0,0,0,0,0,0,0,0],"id":58,"left_children":[1,3,5,7,9,11,13,15,17,19,21,-1,23,-1,-1,-1,-1,-1,-1,-1,-1,-1,-1,-1,-1],"loss_changes":[8.281839E-1,5.808393E-1,4.288866E-1,4.1269693E-1,2.6991385E-1,1.212278E-2,1.235683E-1,4.8789546E-1,9.843206E-1,2.4437107E-1,7.7970386E-2,0E0,2.5552283E-3,0E0,0E0,0E0,0E0,0E0,0E0,0E0,0E0,0E0,0E0,0E0,0E0],"parents":[2147483647,0,0,1,1,2,2,3,3,4,4,5,5,6,6,7,7,8,8,9,9,10,10,12,12],"right_children":[2,4,6,8,10,12,14,16,18,20,22,-1,24,-1,-1,-1,-1,-1,-1,-1,-1,-1,-1,-1,-1],"split_conditions":[1E0,1E0,2.115E3,-1.58E1,1.0327E4,1.75E1,2.19E1,5E0,3E1,9.507E3,1.09E1,1.5589751E-2,2.3E1,2.947094E-2,8.877044E-2,-1.3364188E-2,1.3261743E-2,3.8257767E-3,-1.3153264E-2,1.8629506E-2,-2.8472213E-2,9.562225E-3,6.0848083E-2,5.3366087E-3,-7.7796937E-4],"split_indices":[7,8,3,2,3,2,1,4,0,3,1,0,0,0,0,0,0,0,0,0,0,0,0,0,0],"split_type":[0,0,0,0,0,0,0,0,0,0,0,0,0,0,0,0,0,0,0,0,0,0,0,0,0],"sum_hessian":[2.71E2,2.61E2,1E1,2.49E2,1.2E1,6E0,4E0,5.4E1,1.95E2,9E0,3E0,2E0,4E0,3E0,1E0,1.2E1,4.2E1,9.9E1,9.6E1,8E0,1E0,1E0,2E0,3E0,1E0],"tree_param":{"num_deleted":"0","num_feature":"10","num_nodes":"25","size_leaf_vector":"1"}},{"base_weights":[1.0428061E-2,-3.3307038E-3,3.14545E-1,2.3755594E-3,-5.0437164E-1,3.5393715E-2,8.3793364E-2,-8.732666E-3,1.8735428E-1,8.988648E-3,-9.977554E-2,2.3384781E-1,-2.2152233E-1,-5.5832137E-5,-3.5479564E-2,5.5569533E-2,-1.3414822E-2,-8.69751E-4,3.5512045E-2,-4.6059035E-2,-4.7375485E-3],"categories":[],"categories_nodes":[],"categories_segments":[],"categories_sizes":[],"default_left":[0,0,0,0,0,0,0,0,0,0,0,0,0,0,0,0,0,0,0,0,0],"id":59,"left_children":[1,3,5,7,9,11,-1,13,15,-1,-1,17,19,-1,-1,-1,-1,-1,-1,-1,-1],"loss_changes":[1.1600914E0,7.617111E-1,1.2607201E0,5.440994E-1,6.307104E-1,4.5969084E-1,0E0,5.929043E-1,1.2889926E0,0E0,0E0,7.698816E-2,1.03031084E-1,0E0,0E0,0E0,0E0,0E0,0E0,0E0,0E0],"parents":[2147483647,0,0,1,1,2,2,3,3,4,4,5,5,7,7,8,8,11,11,12,12],"right_children":[2,4,6,8,10,12,-1,14,16,-1,-1,18,20,-1,-1,-1,-1,-1,-1,-1,-1],"split_conditions":[2.03E1,2.02E1,2.83E1,1.58E1,2.7E1,5.5E0,8.3793364E-2,1.37E1,1.81E1,8.988648E-3,-9.977554E-2,3.5E0,1.52E1,-5.5832137E-5,-3.5479564E-2,5.5569533E-2,-1.3414822E-2,-8.69751E-4,3.5512045E-2,-4.6059035E-2,-4.7375485E-3],"split_indices":[5,5,1,5,0,4,0,5,5,0,0,2,1,0,0,0,0,0,0,0,0],"split_type":[0,0,0,0,0,0,0,0,0,0,0,0,0,0,0,0,0,0,0,0,0],"sum_hessian":[2.76E2,2.65E2,1.1E1,2.63E2,2E0,7E0,4E0,2.49E2,1.4E1,1E0,1E0,4E0,3E0,2.43E2,6E0,7E0,7E0,1E0,3E0,1E0,2E0],"tree_param":{"num_deleted":"0","num_feature":"10","num_nodes":"21","size_leaf_vector":"1"}},{"base_weights":[5.0197705E-3,-8.334666E-3,2.7172235E-1,-1.7873324E-2,1.7427474E-1,6.58803E-2,5.008914E-1,6.774945E-3,-8.4561564E-2,8.646011E-2,3.502426E-1,1.2924346E-2,3.3988953E-2,8.444916E-2,2.6823577E-2,9.4378395E-3,-2.3469352E-3,-1.9210394E-3,-5.1852334E-2,1.7002461E-2,-2.463501E-2,8.449402E-3,5.0405882E-2,5.185547E-3,-7.2784425E-4],"categories":[],"categories_nodes":[],"categories_segments":[],"categories_sizes":[],"default_left":[0,0,0,0,0,0,0,0,0,0,0,0,0,0,0,0,0,0,0,0,0,0,0,0,0],"id":60,"left_children":[1,3,5,7,9,11,13,15,17,19,21,-1,23,-1,-1,-1,-1,-1,-1,-1,-1,-1,-1,-1,-1],"loss_changes":[9.710369E-1,4.5599562E-1,5.8024526E-1,4.0822282E-1,1.7060116E-1,7.009521E-3,1.8027198E-1,3.459972E-1,1.589355E0,1.9021322E-1,4.8559606E-2,0E0,2.4788533E-3,0E0,0E0,0E0,0E0,0E0,0E0,0E0,0E0,0E0,0E0,0E0,0E0],"parents":[2147483647,0,0,1,1,2,2,3,3,4,4,5,5,6,6,7,7,8,8,9,9,10,10,12,12],"right_children":[2,4,6,8,10,12,14,16,18,20,22,-1,24,-1,-1,-1,-1,-1,-1,-1,-1,-1,-1,-1,-1],"split_conditions":[1E0,1E0,2.115E3,1.63E1,1.0327E4,1.75E1,3.996E3,3E1,2.8E1,9.507E3,1.09E1,1.2924346E-2,2.3E1,8.444916E-2,2.6823577E-2,9.4378395E-3,-2.3469352E-3,-1.9210394E-3,-5.1852334E-2,1.7002461E-2,-2.463501E-2,8.449402E-3,5.0405882E-2,5.185547E-3,-7.2784425E-4],"split_indices":[7,8,3,1,3,2,3,0,0,3,1,0,0,0,0,0,0,0,0,0,0,0,0,0,0],"split_type":[0,0,0,0,0,0,0,0,0,0,0,0,0,0,0,0,0,0,0,0,0,0,0,0,0],"sum_hessian":[2.71E2,2.59E2,1.2E1,2.47E2,1.2E1,7E0,5E0,1.81E2,6.6E1,9E0,3E0,2E0,5E0,2E0,3E0,4.8E1,1.33E2,5.6E1,1E1,8E0,1E0,1E0,2E0,4E0,1E0],"tree_param":{"num_deleted":"0","num_feature":"10","num_nodes":"25","size_leaf_vector":"1"}},{"base_weights":[1.5403277E-2,-4.1637365E-3,2.1858454E-1,1.6120009E-3,-3.597746E-1,3.2683507E-1,-2.5813445E-1,7.929853E-2,-2.0020396E-2,-5.440231E-2,-4.7424315E-3,5.3868975E-2,4.3997273E-1,-5.274868E-1,4.9156494E-2,-6.0576387E-3,1.3192921E-2,4.2155003E-3,-9.939416E-3,1.4934654E-2,-3.6221694E-3,7.196699E-2,3.8968504E-3,7.942657E-3,-8.969299E-2],"categories":[],"categories_nodes":[],"categories_segments":[],"categories_sizes":[],"default_left":[0,0,0,0,0,0,0,0,0,0,0,0,0,0,0,0,0,0,0,0,0,0,0,0,0],"id":61,"left_children":[1,3,5,7,9,11,13,15,17,-1,-1,19,21,23,-1,-1,-1,-1,-1,-1,-1,-1,-1,-1,-1],"loss_changes":[1.0862627E0,5.140587E-1,1.3228894E0,4.166824E-1,1.0195845E-1,5.939541E-1,1.115408E0,2.2029409E-1,6.748942E-1,0E0,0E0,4.5288045E-2,8.9190865E-1,5.717995E-1,0E0,0E0,0E0,0E0,0E0,0E0,0E0,0E0,0E0,0E0,0E0],"parents":[2147483647,0,0,1,1,2,2,3,3,4,4,5,5,6,6,7,7,8,8,11,11,12,12,13,13],"right_children":[2,4,6,8,10,12,14,16,18,-1,-1,20,22,24,-1,-1,-1,-1,-1,-1,-1,-1,-1,-1,-1],"split_conditions":[1.58E1,1.47E1,1.2396E4,-1.47E1,2.2E1,2.261E3,3.4E1,4.5E0,3E1,-5.440231E-2,-4.7424315E-3,1.04E2,1.47E1,1.09E1,4.9156494E-2,-6.0576387E-3,1.3192921E-2,4.2155003E-3,-9.939416E-3,1.4934654E-2,-3.6221694E-3,7.196699E-2,3.8968504E-3,7.942657E-3,-8.969299E-2],"split_indices":[5,5,3,1,0,3,0,4,0,0,0,3,2,1,0,0,0,0,0,0,0,0,0,0,0],"split_type":[0,0,0,0,0,0,0,0,0,0,0,0,0,0,0,0,0,0,0,0,0,0,0,0,0],"sum_hessian":[2.72E2,2.49E2,2.3E1,2.46E2,3E0,1.9E1,4E0,5.3E1,1.93E2,2E0,1E0,6E0,1.3E1,3E0,1E0,1E1,4.3E1,1.03E2,9E1,3E0,3E0,9E0,4E0,1E0,2E0],"tree_param":{"num_deleted":"0","num_feature":"10","num_nodes":"25","size_leaf_vector":"1"}},{"base_weights":[6.22097E-3,-5.521064E-3,3.0971757E-1,-7.85229E-2,2.637212E-2,4.7850292E-2,6.744177E-2,-2.0598233E-1,-1.9159108E-2,3.6047567E-2,-6.716644E-2,1.0265827E-1,-4.9412535E-3,-1.863977E-2,-8.529625E-2,4.7697482E-4,-1.4839096E-2,1.5910847E-2,-4.145497E-4,-4.5936584E-4,1.6731568E-2],"categories":[],"categories_nodes":[],"categories_segments":[],"categories_sizes":[],"default_left":[0,0,0,0,0,0,0,0,0,0,0,0,0,0,0,0,0,0,0,0,0],"id":62,"left_children":[1,3,5,7,9,11,-1,13,15,17,-1,19,-1,-1,-1,-1,-1,-1,-1,-1,-1],"loss_changes":[9.567728E-1,6.050904E-1,6.3379127E-1,5.938052E-1,1.0465746E0,3.3503644E-2,0E0,5.288296E-1,1.3345364E-1,6.831013E-1,0E0,1.6196374E-2,0E0,0E0,0E0,0E0,0E0,0E0,0E0,0E0,0E0],"parents":[2147483647,0,0,1,1,2,2,3,3,4,4,5,5,7,7,8,8,9,9,11,11],"right_children":[2,4,6,8,10,12,-1,14,16,18,-1,20,-1,-1,-1,-1,-1,-1,-1,-1,-1],"split_conditions":[2.03E1,5.1E0,2.83E1,8.5E0,3.03E1,1.51E1,6.744177E-2,1.15E1,2.85E1,3E1,-6.716644E-2,3.5E0,-4.9412535E-3,-1.863977E-2,-8.529625E-2,4.7697482E-4,-1.4839096E-2,1.5910847E-2,-4.145497E-4,-4.5936584E-4,1.6731568E-2],"split_indices":[5,4,1,2,1,1,0,5,2,0,0,2,0,0,0,0,0,0,0,0,0],"split_type":[0,0,0,0,0,0,0,0,0,0,0,0,0,0,0,0,0,0,0,0,0],"sum_hessian":[2.67E2,2.58E2,9E0,7.8E1,1.8E2,5E0,4E0,2.4E1,5.4E1,1.78E2,2E0,3E0,2E0,2.3E1,1E0,4.5E1,9E0,5.1E1,1.27E2,1E0,2E0],"tree_param":{"num_deleted":"0","num_feature":"10","num_nodes":"21","size_leaf_vector":"1"}},{"base_weights":[-6.2472103E-3,-1.7869733E-2,2.4222057E-1,5.2802704E-2,-3.658127E-2,5.8265142E-2,4.1646513E-1,-7.2402075E-2,9.029935E-2,2.0393806E-3,-8.1386484E-2,1.04359435E-2,2.9391479E-2,6.860168E-2,2.3512458E-2,-4.606821E-2,-1.7342349E-3,4.420471E-4,1.1344565E-2,9.834129E-3,-3.6426876E-3,-5.730224E-2,-7.0169815E-3,4.4320677E-3,-4.6691894E-5],"categories":[],"categories_nodes":[],"categories_segments":[],"categories_sizes":[],"default_left":[0,0,0,0,0,0,0,0,0,0,0,0,0,0,0,0,0,0,0,0,0,0,0,0,0],"id":63,"left_children":[1,3,5,7,9,11,13,15,17,19,21,-1,23,-1,-1,-1,-1,-1,-1,-1,-1,-1,-1,-1,-1],"loss_changes":[7.7537704E-1,3.404634E-1,3.6037338E-1,2.6005492E-1,3.5143855E-1,3.2448657E-3,9.336281E-2,2.2912061E-1,1.50714815E-2,2.8725E-1,8.2522464E-1,0E0,1.1374587E-3,0E0,0E0,0E0,0E0,0E0,0E0,0E0,0E0,0E0,0E0,0E0,0E0],"parents":[2147483647,0,0,1,1,2,2,3,3,4,4,5,5,6,6,7,7,8,8,9,9,10,10,12,12],"right_children":[2,4,6,8,10,12,14,16,18,20,22,-1,24,-1,-1,-1,-1,-1,-1,-1,-1,-1,-1,-1,-1],"split_conditions":[1E0,-1.58E1,2.115E3,5.3E0,3E1,1.75E1,3.996E3,5.5E1,5.1E1,5E0,4.9E0,1.04359435E-2,2E1,6.860168E-2,2.3512458E-2,-4.606821E-2,-1.7342349E-3,4.420471E-4,1.1344565E-2,9.834129E-3,-3.6426876E-3,-5.730224E-2,-7.0169815E-3,4.4320677E-3,-4.6691894E-5],"split_indices":[7,2,3,4,0,2,3,0,0,2,4,0,0,0,0,0,0,0,0,0,0,0,0,0,0],"split_type":[0,0,0,0,0,0,0,0,0,0,0,0,0,0,0,0,0,0,0,0,0,0,0,0,0],"sum_hessian":[2.66E2,2.55E2,1.1E1,5.3E1,2.02E2,6E0,5E0,1.2E1,4.1E1,1.09E2,9.3E1,2E0,4E0,2E0,3E0,1E0,1.1E1,2E0,3.9E1,3.1E1,7.8E1,4E0,8.9E1,3E0,1E0],"tree_param":{"num_deleted":"0","num_feature":"10","num_nodes":"25","size_leaf_vector":"1"}},{"base_weights":[5.3969054E-3,-3.519951E-3,2.420456E-1,8.147956E-4,-3.8380432E-1,3.8647747E-1,-2.2378795E-1,-4.8485313E-2,2.2129359E-2,7.6556397E-3,-7.6740414E-2,3.0693054E-2,4.9995676E-1,-3.7965316E-2,-2.316513E-3,-1.6528387E-2,-1.2066269E-3,3.6905564E-3,-6.136669E-2,9.387817E-3,-3.8630676E-3,6.5427974E-2,1.641449E-2],"categories":[],"categories_nodes":[],"categories_segments":[],"categories_sizes":[],"default_left":[0,0,0,0,0,0,0,0,0,0,0,0,0,0,0,0,0,0,0,0,0,0,0],"id":64,"left_children":[1,3,5,7,9,11,13,15,17,-1,-1,19,21,-1,-1,-1,-1,-1,-1,-1,-1,-1,-1],"loss_changes":[5.8114666E-1,4.387968E-1,7.593011E-1,2.7848685E-1,3.841522E-1,3.0764818E-1,5.06918E-2,2.7300972E-1,8.670504E-1,0E0,0E0,1.14869205E-2,2.4076939E-2,0E0,0E0,0E0,0E0,0E0,0E0,0E0,0E0,0E0,0E0],"parents":[2147483647,0,0,1,1,2,2,3,3,4,4,5,5,6,6,7,7,8,8,11,11,12,12],"right_children":[2,4,6,8,10,12,14,16,18,-1,-1,20,22,-1,-1,-1,-1,-1,-1,-1,-1,-1,-1],"split_conditions":[2.03E1,2.02E1,2.36E1,5.1E0,1.09E1,2.261E3,1.52E1,8.4E0,3.03E1,7.6556397E-3,-7.6740414E-2,1.51E1,9.8E0,-3.7965316E-2,-2.316513E-3,-1.6528387E-2,-1.2066269E-3,3.6905564E-3,-6.136669E-2,9.387817E-3,-3.8630676E-3,6.5427974E-2,1.641449E-2],"split_indices":[5,5,5,4,1,3,1,2,1,0,0,1,4,0,0,0,0,0,0,0,0,0,0],"split_type":[0,0,0,0,0,0,0,0,0,0,0,0,0,0,0,0,0,0,0,0,0,0,0],"sum_hessian":[2.74E2,2.65E2,9E0,2.63E2,2E0,7E0,2E0,7.9E1,1.84E2,1E0,1E0,2E0,5E0,1E0,1E0,2.3E1,5.6E1,1.82E2,2E0,1E0,1E0,4E0,1E0],"tree_param":{"num_deleted":"0","num_feature":"10","num_nodes":"23","size_leaf_vector":"1"}},{"base_weights":[6.015704E-3,-6.0410197E-3,1.21519625E-1,-1.0306055E-3,-3.013978E-1,4.4228134E-1,3.9361138E-2,-4.2196564E-2,1.8663863E-2,-4.5401383E-2,-4.2333985E-3,6.985531E-2,-7.0262146E-3,-9.754721E-2,1.9971505E-1,-1.5449082E-2,-3.5404204E-4,1.1969649E-2,-5.5810745E-4,5.1788636E-3,-6.4085536E-2,3.4559224E-2,-3.5687484E-2],"categories":[],"categories_nodes":[],"categories_segments":[],"categories_sizes":[],"default_left":[0,0,0,0,0,0,0,0,0,0,0,0,0,0,0,0,0,0,0,0,0,0,0],"id":65,"left_children":[1,3,5,7,9,11,13,15,17,-1,-1,-1,-1,19,21,-1,-1,-1,-1,-1,-1,-1,-1],"loss_changes":[3.683802E-1,3.5485575E-1,6.414238E-1,1.9293334E-1,6.856108E-2,3.8428283E-1,4.8051122E-1,2.6115793E-1,3.0482402E-1,0E0,0E0,0E0,0E0,7.6005584E-1,5.2448994E-1,0E0,0E0,0E0,0E0,0E0,0E0,0E0,0E0],"parents":[2147483647,0,0,1,1,2,2,3,3,4,4,5,5,6,6,7,7,8,8,13,13,14,14],"right_children":[2,4,6,8,10,12,14,16,18,-1,-1,-1,-1,20,22,-1,-1,-1,-1,-1,-1,-1,-1],"split_conditions":[1.58E1,1.47E1,1.68E1,5.1E0,2.2E1,3.2E1,6.653592E6,8.5E0,3E1,-4.5401383E-2,-4.2333985E-3,6.985531E-2,-7.0262146E-3,1.0975E4,2.2557E4,-1.5449082E-2,-3.5404204E-4,1.1969649E-2,-5.5810745E-4,5.1788636E-3,-6.4085536E-2,3.4559224E-2,-3.5687484E-2],"split_indices":[5,5,5,4,0,0,6,2,0,0,0,0,0,3,3,0,0,0,0,0,0,0,0],"split_type":[0,0,0,0,0,0,0,0,0,0,0,0,0,0,0,0,0,0,0,0,0,0,0],"sum_hessian":[2.63E2,2.39E2,2.4E1,2.36E2,3E0,4E0,2E1,7.6E1,1.6E2,2E0,1E0,3E0,1E0,1.1E1,9E0,2.3E1,5.3E1,3.5E1,1.25E2,9E0,2E0,8E0,1E0],"tree_param":{"num_deleted":"0","num_feature":"10","num_nodes":"23","size_leaf_vector":"1"}},{"base_weights":[3.6272453E-3,1.8322552E-2,-5.7440575E-2,-3.139192E-2,3.891946E-2,-4.1385468E-2,-4.5280628E-2,-1.21351E-2,-2.6004672E-1,2.343058E-1,2.6774889E-2,-5.192411E-3,-1.20714344E-1,-3.295714E-4,-2.3128072E-2,-4.861616E-3,-6.8290785E-2,3.2615617E-2,-3.93734E-3,3.9718254E-3,-2.5098152E-2,5.738032E-3,-4.191415E-3,-1.6131509E-3,-4.7631774E-2],"categories":[],"categories_nodes":[],"categories_segments":[],"categories_sizes":[],"default_left":[0,0,0,0,0,0,0,0,0,0,0,0,0,0,0,0,0,0,0,0,0,0,0,0,0],"id":66,"left_children":[1,3,5,7,9,-1,11,13,15,17,19,21,23,-1,-1,-1,-1,-1,-1,-1,-1,-1,-1,-1,-1],"loss_changes":[2.4514803E-1,2.2649395E-1,1.6963114E-1,2.8305E-1,3.638963E-1,0E0,1.5662135E-1,1.0290125E-1,3.1617048E-1,9.9048376E-2,2.2772607E-1,5.684027E-2,5.2800775E-1,0E0,0E0,0E0,0E0,0E0,0E0,0E0,0E0,0E0,0E0,0E0,0E0],"parents":[2147483647,0,0,1,1,2,2,3,3,4,4,6,6,7,7,8,8,9,9,10,10,11,11,12,12],"right_children":[2,4,6,8,10,-1,12,14,16,18,20,22,24,